// This file is computer-generated by onnx2c 
// Command Line: ./onnx2c /home/lea/Documents/work/model.onnx

// onnx2c
// Git Branch: master
// Git Commit: e0d9b35

// ONNX Model
// Produced By: tf2onnx, version 1.16.1 15c810
// ONNX IR version: 13

#include <float.h>
#include <math.h>
#include <stdbool.h>
#include <stdint.h>
#include <string.h>
#include <stdlib.h>

#define MAX(X,Y) ( X > Y ? X : Y)
#define MIN(X,Y) ( X < Y ? X : Y)
#define CLIP(X,L) ( MAX(MIN(X,L), -L) )

#if __STDC_VERSION__ < 199901L
#define FUNC_PREFIX
#else
#define FUNC_PREFIX static inline
#endif

static const int64_t tensor_sequential_1_1_flatten_1_1_Reshape_shape__19[2] = 
{-1, 784};
static const float tensor_sequential_1_1_dense_5_1_Cast_ReadVariableOp_0[10][10] = 
{
  {-0.26417556405067443848f, -0.33544015884399414062f, 0.34257328510284423828f, -0.32305198907852172852f, -0.58155369758605957031f, 0.13409443199634552002f, -0.72397243976593017578f, -0.28963378071784973145f, 0.27547711133956909180f, -0.29522258043289184570f},
  {0.11496616899967193604f, 0.32061058282852172852f, 0.11200936138629913330f, -0.13438430428504943848f, 0.24887576699256896973f, -0.14156924188137054443f, -0.54962873458862304688f, 0.58607518672943115234f, -0.56968718767166137695f, 0.57868403196334838867f},
  {-0.28333687782287597656f, 0.69504606723785400391f, -0.23744772374629974365f, -0.61405295133590698242f, -0.11484903842210769653f, 0.56098812818527221680f, -0.20302337408065795898f, 0.00835813023149967194f, -0.20015683770179748535f, -0.49848574399948120117f},
  {-0.47990995645523071289f, -0.05640066787600517273f, -0.62300717830657958984f, -0.08488556742668151855f, 0.45119935274124145508f, 0.54896229505538940430f, -0.24894209206104278564f, 0.16607990860939025879f, 0.09523851424455642700f, -0.19026552140712738037f},
  {0.16235427558422088623f, 0.11348565667867660522f, -0.58358889818191528320f, 0.39706969261169433594f, -0.50115013122558593750f, 0.32560914754867553711f, -0.50628542900085449219f, -0.12165267765522003174f, 0.32209613919258117676f, 0.07211924344301223755f},
  {-0.25599020719528198242f, 0.60324227809906005859f, 0.25662079453468322754f, 0.74396908283233642578f, -0.13721920549869537354f, 0.46638813614845275879f, -0.08525432646274566650f, 0.44344741106033325195f, -0.28349372744560241699f, -0.72911465167999267578f},
  {0.78617238998413085938f, -0.43116873502731323242f, 0.35179767012596130371f, -0.12207759171724319458f, 0.11460322886705398560f, 0.15204413235187530518f, 0.50151437520980834961f, 0.36929088830947875977f, 0.05849345400929450989f, -0.45413327217102050781f},
  {-0.11894655972719192505f, 0.43121299147605895996f, 0.13685199618339538574f, -0.00557662593200802803f, 0.73733878135681152344f, -0.58671575784683227539f, 0.26963254809379577637f, -0.10033138096332550049f, 0.43405494093894958496f, 0.12288058549165725708f},
  {-0.24192820489406585693f, 0.52855789661407470703f, -0.30900242924690246582f, 0.14744241535663604736f, -0.32226932048797607422f, 0.09556134045124053955f, 0.38666936755180358887f, -0.32952180504798889160f, -0.04856098443269729614f, 0.09380593150854110718f},
  {0.36491155624389648438f, 0.07543014734983444214f, -0.18835496902465820312f, -0.40174946188926696777f, 0.54713839292526245117f, 0.68126791715621948242f, -0.30869269371032714844f, -0.42714101076126098633f, -0.58861601352691650391f, -0.11720125377178192139f}
};
static const float tensor_sequential_1_1_dense_5_1_BiasAdd_ReadVariableOp_0[10] = 
{-0.16614978015422821045f, -0.08758219331502914429f, -0.04312718659639358521f, 0.01463965699076652527f, 0.00632447889074683189f, 0.11426286399364471436f, 0.00965799298137426376f, -0.03777708858251571655f, -0.00631045177578926086f, 0.03846046328544616699f};
static const float tensor_sequential_1_1_dense_4_1_Cast_ReadVariableOp_0[128][10] = 
{
  {0.22947411239147186279f, -0.12402134388685226440f, -0.00020413752645254135f, 0.02907518483698368073f, 0.26083913445472717285f, -0.17476770281791687012f, 0.28263154625892639160f, -0.25044062733650207520f, -0.15900665521621704102f, -0.13204170763492584229f},
  {0.07119100540876388550f, 0.12993529438972473145f, -0.13077591359615325928f, -0.09615541249513626099f, 0.10608340054750442505f, 0.16868434846401214600f, 0.01008605957031250000f, -0.20642419159412384033f, -0.22958275675773620605f, -0.23776140809059143066f},
  {0.11167802661657333374f, -0.06248304247856140137f, 0.04576066508889198303f, 0.04705690965056419373f, -0.04767948016524314880f, 0.39504617452621459961f, -0.03832899406552314758f, -0.26563417911529541016f, -0.26379913091659545898f, 0.10185015201568603516f},
  {-0.20226076245307922363f, -0.20060159265995025635f, 0.13598562777042388916f, 0.26953524351119995117f, -0.02498892508447170258f, -0.10798169672489166260f, 0.01863621175289154053f, 0.18244895339012145996f, 0.17982085049152374268f, -0.09847568720579147339f},
  {0.28797754645347595215f, 0.14990149438381195068f, -0.11968099325895309448f, 0.06581328809261322021f, 0.09318025410175323486f, 0.07575009018182754517f, -0.12966552376747131348f, 0.15814784169197082520f, 0.03555273264646530151f, -0.00871721096336841583f},
  {-0.40135228633880615234f, 0.47637867927551269531f, 0.30535468459129333496f, 0.24086861312389373779f, -0.09789495170116424561f, 0.15622428059577941895f, -0.03858820348978042603f, 0.08175674825906753540f, -0.05307089537382125854f, 0.02297758311033248901f},
  {0.28677037358283996582f, 0.16936209797859191895f, 0.02879904210567474365f, -0.15939925611019134521f, 0.28945747017860412598f, -0.04922971874475479126f, -0.11283245682716369629f, 0.00106819998472929001f, 0.07037761807441711426f, -0.24454879760742187500f},
  {0.26347976922988891602f, -0.07714550942182540894f, -0.07121738046407699585f, -0.05246126651763916016f, 0.11302683502435684204f, 0.31182104349136352539f, -0.27410748600959777832f, 0.16051715612411499023f, 0.16567476093769073486f, 0.09578074514865875244f},
  {-0.33621209859848022461f, -0.23641401529312133789f, 0.08796463161706924438f, -0.01282668393105268478f, 0.21793755888938903809f, 0.28652313351631164551f, 0.10016167163848876953f, -0.22957360744476318359f, 0.38154658675193786621f, 0.17313987016677856445f},
  {-0.16625915467739105225f, -0.12702490389347076416f, -0.21831126511096954346f, -0.17573344707489013672f, -0.30870780348777770996f, 0.40377667546272277832f, 0.07465361803770065308f, 0.25870838761329650879f, -0.17829984426498413086f, 0.16454382240772247314f},
  {0.23712006211280822754f, -0.00358045846223831177f, -0.17726726830005645752f, -0.24369126558303833008f, -0.39269945025444030762f, 0.24655751883983612061f, 0.15796084702014923096f, -0.13830593228340148926f, 0.03040743805468082428f, -0.16136319935321807861f},
  {0.23339791595935821533f, -0.11532323807477951050f, 0.04331315308809280396f, 0.00925863161683082581f, -0.19151337444782257080f, 0.16490933299064636230f, -0.09980989247560501099f, 0.22435501217842102051f, 0.05436024442315101624f, -0.06939192116260528564f},
  {0.08701652288436889648f, 0.18233373761177062988f, 0.20466794073581695557f, 0.14922162890434265137f, 0.01432709489017724991f, -0.11712707579135894775f, -0.24845695495605468750f, 0.08561753481626510620f, -0.12860096991062164307f, -0.25706371665000915527f},
  {0.00763638457283377647f, 0.04310994595289230347f, 0.24239034950733184814f, 0.03787248954176902771f, 0.18446102738380432129f, 0.00731682963669300079f, 0.39768692851066589355f, -0.07566117495298385620f, -0.22062763571739196777f, 0.19935931265354156494f},
  {0.14875847101211547852f, -0.05864834412932395935f, -0.03558772802352905273f, -0.16864097118377685547f, 0.10808891803026199341f, 0.13839948177337646484f, -0.22394098341464996338f, -0.26886582374572753906f, -0.14932441711425781250f, -0.16816008090972900391f},
  {-0.13551652431488037109f, 0.18090420961380004883f, 0.06301279366016387939f, 0.03256639093160629272f, -0.27302682399749755859f, -0.19671352207660675049f, -0.07083823531866073608f, 0.18188218772411346436f, -0.20836055278778076172f, -0.27071362733840942383f},
  {0.17568220198154449463f, 0.31197378039360046387f, -0.19481043517589569092f, -0.27201476693153381348f, -0.09886796772480010986f, 0.04236092418432235718f, -0.03650166839361190796f, -0.30593886971473693848f, -0.22422143816947937012f, -0.37128260731697082520f},
  {0.16369549930095672607f, -0.21652196347713470459f, 0.00291787926107645035f, 0.07603467255830764771f, -0.17126837372779846191f, 0.21031466126441955566f, -0.10997451841831207275f, 0.13911412656307220459f, -0.02413497120141983032f, -0.04086634516716003418f},
  {-0.10629491508007049561f, 0.31623578071594238281f, -0.01218341663479804993f, -0.22398355603218078613f, -0.04340818151831626892f, -0.06439464539289474487f, -0.28017497062683105469f, 0.09862849861383438110f, 0.16545529663562774658f, -0.24796283245086669922f},
  {-0.20939451456069946289f, 0.04471854493021965027f, -0.22395490109920501709f, 0.02230520360171794891f, 0.04858161136507987976f, -0.22431407868862152100f, 0.15398749709129333496f, 0.12218071520328521729f, -0.02860057912766933441f, -0.15304914116859436035f},
  {0.06474174559116363525f, 0.12373516708612442017f, -0.29063278436660766602f, -0.04681967571377754211f, -0.07383915036916732788f, -0.36635148525238037109f, 0.22770792245864868164f, 0.16806542873382568359f, -0.23512099683284759521f, 0.10401078313589096069f},
  {-0.11739735305309295654f, 0.19733341038227081299f, 0.28824189305305480957f, -0.02041390351951122284f, 0.21973474323749542236f, 0.02655492536723613739f, 0.08465760201215744019f, -0.44904285669326782227f, 0.36188945174217224121f, 0.17770041525363922119f},
  {-0.13075941801071166992f, 0.31727704405784606934f, 0.03549666702747344971f, -0.16499945521354675293f, -0.21744310855865478516f, -0.16412360966205596924f, 0.04326062276959419250f, 0.15242865681648254395f, -0.09923721849918365479f, 0.30604487657546997070f},
  {-0.27822604775428771973f, 0.10636164247989654541f, -0.23182979226112365723f, -0.21817027032375335693f, -0.28955146670341491699f, 0.12144859135150909424f, -0.14393226802349090576f, 0.16217288374900817871f, 0.16047485172748565674f, 0.11095691472291946411f},
  {0.08645804226398468018f, -0.10789612680673599243f, -0.22037650644779205322f, -0.22040121257305145264f, 0.29137316346168518066f, -0.00987224187701940536f, 0.14644467830657958984f, 0.08939091861248016357f, 0.27056908607482910156f, 0.03668817132711410522f},
  {-0.15853482484817504883f, 0.08529893308877944946f, 0.26699629426002502441f, 0.08785186707973480225f, 0.40267598628997802734f, 0.23513695597648620605f, -0.31562680006027221680f, -0.20940862596035003662f, 0.29256197810173034668f, 0.22280591726303100586f},
  {0.26941588521003723145f, 0.30789762735366821289f, 0.20211364328861236572f, 0.11676086485385894775f, -0.11688954383134841919f, -0.14023552834987640381f, -0.08196566998958587646f, 0.18121020495891571045f, -0.33314803242683410645f, 0.12312930077314376831f},
  {0.12893071770668029785f, 0.10898993909358978271f, 0.11997258663177490234f, -0.21284781396389007568f, -0.15508830547332763672f, -0.18483677506446838379f, -0.06199263036251068115f, 0.00256390427239239216f, -0.24778568744659423828f, 0.31568980216979980469f},
  {0.08866488188505172729f, 0.37287271022796630859f, 0.27175018191337585449f, -0.12550449371337890625f, -0.26313531398773193359f, 0.44826737046241760254f, 0.07081344723701477051f, -0.22062256932258605957f, 0.03045540861785411835f, -0.18985785543918609619f},
  {0.26016259193420410156f, 0.01358397305011749268f, -0.29129770398139953613f, -0.19326621294021606445f, 0.16461667418479919434f, 0.22852914035320281982f, -0.10230894386768341064f, -0.08173431456089019775f, -0.28832480311393737793f, 0.16940507292747497559f},
  {-0.11593269556760787964f, -0.17134344577789306641f, 0.06612434238195419312f, 0.03318853303790092468f, 0.15330629050731658936f, -0.09224552661180496216f, 0.03573262318968772888f, 0.18880817294120788574f, 0.06482232362031936646f, -0.15070289373397827148f},
  {0.04438656941056251526f, 0.28161028027534484863f, 0.19924913346767425537f, 0.25289648771286010742f, -0.29713156819343566895f, -0.09494637697935104370f, -0.01317045185714960098f, -0.03565001487731933594f, 0.01757964678108692169f, 0.14894579350948333740f},
  {-0.15154987573623657227f, 0.28935620188713073730f, 0.08322372287511825562f, 0.14102075994014739990f, -0.19728183746337890625f, -0.13922615349292755127f, -0.09021110832691192627f, 0.16277346014976501465f, -0.36615422368049621582f, -0.06760881096124649048f},
  {-0.04326524212956428528f, 0.37585350871086120605f, -0.03270637989044189453f, 0.28095561265945434570f, -0.09754878282546997070f, -0.24380677938461303711f, -0.07384312897920608521f, 0.09843184053897857666f, -0.22248247265815734863f, 0.17214342951774597168f},
  {0.19746878743171691895f, 0.03140179067850112915f, -0.10334636270999908447f, -0.00681025860831141472f, -0.10468801856040954590f, 0.02665846794843673706f, -0.16811797022819519043f, 0.14043556153774261475f, -0.09317374974489212036f, -0.34118992090225219727f},
  {0.14070060849189758301f, -0.25838336348533630371f, 0.08596546947956085205f, -0.02379486523568630219f, -0.12153521180152893066f, 0.15122741460800170898f, 0.06367590278387069702f, 0.21700349450111389160f, 0.18260867893695831299f, -0.00442738039419054985f},
  {-0.00719822198152542114f, 0.10040820389986038208f, -0.23618963360786437988f, -0.04610646143555641174f, 0.34815281629562377930f, 0.22072461247444152832f, -0.18515844643115997314f, -0.17653478682041168213f, 0.10923507809638977051f, 0.05339797958731651306f},
  {-0.23987713456153869629f, 0.33010280132293701172f, -0.25828179717063903809f, -0.09214846789836883545f, 0.09076061844825744629f, -0.00562002556398510933f, 0.02135967090725898743f, -0.02256806194782257080f, -0.22015969455242156982f, -0.06269540637731552124f},
  {0.22150704264640808105f, 0.31734371185302734375f, 0.02941488847136497498f, -0.05850585550069808960f, -0.17776657640933990479f, 0.35854148864746093750f, -0.14362996816635131836f, -0.28007203340530395508f, -0.23661415278911590576f, -0.15757463872432708740f},
  {-0.44107601046562194824f, 0.33389312028884887695f, -0.14769630134105682373f, 0.00212086201645433903f, -0.16161373257637023926f, 0.09958317875862121582f, -0.25255727767944335938f, 0.26296088099479675293f, -0.07800079882144927979f, 0.19285602867603302002f},
  {-0.02833208069205284119f, 0.14315229654312133789f, 0.05823162570595741272f, -0.19765381515026092529f, -0.14199183881282806396f, 0.02654746547341346741f, 0.37472778558731079102f, -0.32299327850341796875f, -0.24208393692970275879f, 0.30654984712600708008f},
  {-0.14815440773963928223f, 0.13427200913429260254f, -0.22775143384933471680f, 0.26539146900177001953f, 0.17034979164600372314f, 0.17342194914817810059f, -0.23369079828262329102f, 0.10677641630172729492f, -0.20082481205463409424f, -0.12400969117879867554f},
  {0.18774500489234924316f, -0.21526461839675903320f, 0.12525129318237304688f, -0.09079605340957641602f, 0.10150384157896041870f, -0.20902074873447418213f, 0.27761724591255187988f, -0.30222514271736145020f, 0.12381342053413391113f, 0.11112874001264572144f},
  {0.27680876851081848145f, 0.07833305001258850098f, 0.31062436103820800781f, 0.14097067713737487793f, -0.24075403809547424316f, 0.21822978556156158447f, 0.02357586845755577087f, -0.05108997598290443420f, -0.17228569090366363525f, 0.05437390133738517761f},
  {0.03948486968874931335f, 0.23062799870967864990f, -0.22451163828372955322f, 0.08072750270366668701f, -0.03284193575382232666f, -0.18109367787837982178f, 0.04356506094336509705f, -0.11095826327800750732f, -0.21461760997772216797f, 0.12842342257499694824f},
  {0.03920280560851097107f, -0.31164541840553283691f, 0.23427818715572357178f, 0.12386792898178100586f, -0.05945535749197006226f, 0.03193936496973037720f, 0.15564888715744018555f, 0.05358928814530372620f, -0.13258120417594909668f, -0.13386346399784088135f},
  {-0.21068122982978820801f, -0.03540847077965736389f, -0.23426719009876251221f, -0.11603056639432907104f, 0.15494066476821899414f, 0.01672020182013511658f, -0.35611754655838012695f, 0.35085594654083251953f, 0.15818667411804199219f, -0.04125509783625602722f},
  {-0.07397056370973587036f, 0.07533150911331176758f, -0.10808999091386795044f, -0.24199429154396057129f, 0.07650199532508850098f, 0.15392166376113891602f, 0.06788584589958190918f, -0.22910808026790618896f, 0.04659077525138854980f, -0.12097980082035064697f},
  {0.29612258076667785645f, 0.19756235182285308838f, 0.16789674758911132812f, -0.10462997853755950928f, 0.16113547980785369873f, 0.48614057898521423340f, -0.03214176744222640991f, 0.16217780113220214844f, -0.20114970207214355469f, -0.13433746993541717529f},
  {0.00629132241010665894f, 0.10627736151218414307f, 0.18352696299552917480f, 0.31051960587501525879f, 0.11050283908843994141f, -0.14739882946014404297f, -0.17442034184932708740f, -0.05444003269076347351f, -0.19602344930171966553f, -0.16655001044273376465f},
  {0.34588092565536499023f, -0.22248348593711853027f, 0.09246744960546493530f, -0.09813412278890609741f, -0.13499885797500610352f, 0.38349887728691101074f, 0.12452813237905502319f, -0.14364409446716308594f, -0.14311505854129791260f, -0.04326106235384941101f},
  {-0.06469542533159255981f, -0.11935382336378097534f, -0.10132765769958496094f, 0.25578391551971435547f, 0.23314768075942993164f, -0.05494236201047897339f, -0.28220751881599426270f, 0.20265519618988037109f, -0.03743740916252136230f, 0.13773424923419952393f},
  {-0.12828405201435089111f, -0.19064649939537048340f, 0.16992934048175811768f, 0.17608903348445892334f, 0.08413992077112197876f, -0.17013873159885406494f, 0.14366886019706726074f, 0.16488420963287353516f, 0.02373627573251724243f, -0.20366328954696655273f},
  {-0.39295622706413269043f, 0.23498916625976562500f, -0.04125466942787170410f, -0.20303763449192047119f, -0.17342899739742279053f, -0.16634213924407958984f, 0.15176498889923095703f, 0.20937408506870269775f, -0.08748634159564971924f, 0.05010920017957687378f},
  {-0.05906014516949653625f, 0.22663059830665588379f, 0.02880612574517726898f, -0.02324510365724563599f, 0.23259223997592926025f, 0.12470346689224243164f, -0.23885329067707061768f, -0.16066119074821472168f, 0.12624238431453704834f, 0.05338194221258163452f},
  {-0.06390198320150375366f, -0.25405699014663696289f, 0.05472735315561294556f, 0.20290626585483551025f, 0.08212880045175552368f, 0.16809342801570892334f, 0.11537241935729980469f, -0.25481542944908142090f, 0.19048728048801422119f, -0.29081019759178161621f},
  {-0.05564374104142189026f, -0.23785774409770965576f, -0.14482672512531280518f, 0.07728707790374755859f, 0.18320505321025848389f, -0.20426353812217712402f, -0.01364040933549404144f, -0.22086927294731140137f, -0.11455996334552764893f, 0.11822068691253662109f},
  {0.14876520633697509766f, -0.12594527006149291992f, -0.27939572930335998535f, 0.23013694584369659424f, -0.08055039495229721069f, -0.12064736336469650269f, -0.04993854463100433350f, -0.10270067304372787476f, 0.09716752916574478149f, 0.08567221462726593018f},
  {-0.14568941295146942139f, -0.07295601814985275269f, 0.12205437570810317993f, -0.18255198001861572266f, -0.05928227677941322327f, -0.24435804784297943115f, -0.26187500357627868652f, 0.21663530170917510986f, 0.10579629242420196533f, -0.24511262774467468262f},
  {-0.12229587137699127197f, 0.32160237431526184082f, -0.11674086749553680420f, -0.00604717014357447624f, 0.00384001503698527813f, 0.31399390101432800293f, 0.10183285921812057495f, -0.06552469730377197266f, 0.05346827954053878784f, -0.30581840872764587402f},
  {-0.22558313608169555664f, -0.07240733504295349121f, 0.26953345537185668945f, -0.22518384456634521484f, -0.28644743561744689941f, 0.23364762961864471436f, 0.13144569098949432373f, 0.07316879928112030029f, -0.01592312008142471313f, -0.13645969331264495850f},
  {-0.19841274619102478027f, -0.03311737999320030212f, 0.00283014099113643169f, 0.05884759128093719482f, 0.20061866939067840576f, -0.00966921262443065643f, 0.15622392296791076660f, 0.17494672536849975586f, -0.17725013196468353271f, -0.10854325443506240845f},
  {-0.02152481302618980408f, 0.02626048400998115540f, -0.10377156734466552734f, 0.22917746007442474365f, 0.16305457055568695068f, -0.17247535288333892822f, 0.13340103626251220703f, -0.02863205038011074066f, -0.17600941658020019531f, 0.06823967397212982178f},
  {0.05965454876422882080f, -0.19868685305118560791f, 0.21283333003520965576f, -0.15666943788528442383f, -0.28606840968132019043f, 0.23610319197177886963f, 0.13990876078605651855f, 0.12859675288200378418f, 0.02811320871114730835f, 0.24216566979885101318f},
  {0.22535610198974609375f, -0.03506890311837196350f, 0.07570786774158477783f, 0.07541522383689880371f, -0.03108304738998413086f, -0.22709055244922637939f, 0.04873676970601081848f, -0.12058093398809432983f, 0.21532157063484191895f, -0.12139903753995895386f},
  {-0.07660496234893798828f, -0.08022802323102951050f, -0.11639556288719177246f, -0.25621849298477172852f, -0.00724104279652237892f, -0.25063282251358032227f, 0.18924121558666229248f, 0.11926052719354629517f, -0.29850140213966369629f, 0.01549132540822029114f},
  {-0.11120438575744628906f, -0.23362906277179718018f, -0.07161837816238403320f, -0.15796887874603271484f, 0.01704905927181243896f, 0.34998980164527893066f, 0.24676959216594696045f, -0.22326554358005523682f, 0.23808522522449493408f, 0.11153599619865417480f},
  {-0.21923483908176422119f, -0.16872368752956390381f, 0.09679109603166580200f, 0.18431112170219421387f, 0.22450904548168182373f, -0.17029142379760742188f, -0.09640122950077056885f, 0.13140371441841125488f, 0.00973199494183063507f, -0.08954916149377822876f},
  {0.08442040532827377319f, -0.30312061309814453125f, 0.23826675117015838623f, -0.06552814692258834839f, -0.02680660411715507507f, 0.28231233358383178711f, -0.08752980828285217285f, 0.06085566431283950806f, 0.18211764097213745117f, 0.23930285871028900146f},
  {0.14869347214698791504f, -0.30851471424102783203f, 0.28140956163406372070f, 0.30897822976112365723f, -0.01762551628053188324f, 0.05009220913052558899f, 0.05452548712491989136f, -0.00210460321977734566f, -0.19008338451385498047f, 0.05864921212196350098f},
  {0.07978732883930206299f, 0.28539556264877319336f, -0.00063298363238573074f, 0.06267200410366058350f, 0.19441086053848266602f, -0.22608175873756408691f, 0.22140409052371978760f, -0.19752959907054901123f, -0.02143702283501625061f, 0.08539194613695144653f},
  {-0.08469507098197937012f, 0.44032517075538635254f, -0.21037910878658294678f, -0.23656596243381500244f, 0.00005181704182177782f, 0.02614274993538856506f, 0.19339884817600250244f, -0.34607484936714172363f, -0.14975535869598388672f, 0.03653628006577491760f},
  {0.19137358665466308594f, 0.00846425257623195648f, 0.04178064689040184021f, -0.12711475789546966553f, 0.19448657333850860596f, 0.25383767485618591309f, 0.06975597888231277466f, 0.12031926959753036499f, -0.09938260912895202637f, -0.14199757575988769531f},
  {-0.06363353133201599121f, 0.03523719683289527893f, 0.14573004841804504395f, 0.12264027446508407593f, 0.15941034257411956787f, -0.05639500543475151062f, 0.35703054070472717285f, -0.29338926076889038086f, 0.13104453682899475098f, 0.30299144983291625977f},
  {-0.22455228865146636963f, 0.03851930797100067139f, -0.10662464797496795654f, 0.20355755090713500977f, 0.33694547414779663086f, 0.24831706285476684570f, 0.12174288928508758545f, -0.16373988986015319824f, 0.06050480157136917114f, 0.08713198453187942505f},
  {0.18570767343044281006f, 0.01396860275417566299f, 0.06780182570219039917f, -0.06180193647742271423f, 0.28335773944854736328f, -0.11157947033643722534f, 0.27322134375572204590f, -0.01288564503192901611f, -0.21539065241813659668f, -0.07833260297775268555f},
  {-0.02849182114005088806f, -0.19297957420349121094f, 0.14058025181293487549f, -0.00493117701262235641f, -0.00266593159176409245f, 0.01436511892825365067f, -0.12598568201065063477f, 0.18915373086929321289f, 0.17151185870170593262f, -0.11467415839433670044f},
  {0.36614251136779785156f, 0.03856879100203514099f, 0.05611096322536468506f, 0.25122642517089843750f, 0.20805154740810394287f, 0.07628486305475234985f, -0.02304717898368835449f, -0.12058197706937789917f, -0.22831162810325622559f, -0.28839209675788879395f},
  {0.05494740232825279236f, 0.39034789800643920898f, -0.28229132294654846191f, -0.37634849548339843750f, -0.16773107647895812988f, 0.02668184973299503326f, 0.02628010697662830353f, -0.35762265324592590332f, -0.08480702340602874756f, 0.32854288816452026367f},
  {0.15234763920307159424f, -0.08001326769590377808f, -0.09031946957111358643f, 0.20602530241012573242f, -0.16678604483604431152f, -0.07129634171724319458f, -0.18804274499416351318f, 0.05294954031705856323f, 0.10289252549409866333f, -0.02149944566190242767f},
  {-0.26062089204788208008f, -0.14490586519241333008f, 0.20526695251464843750f, -0.05154875665903091431f, -0.10036505013704299927f, 0.19334621727466583252f, -0.07326905429363250732f, 0.23170848190784454346f, 0.02653761580586433411f, 0.24095951020717620850f},
  {-0.30354270339012145996f, 0.25815856456756591797f, -0.06783387809991836548f, 0.14877453446388244629f, -0.33033609390258789062f, -0.04611182585358619690f, 0.22353424131870269775f, 0.09321274608373641968f, 0.00880284793674945831f, -0.27153959870338439941f},
  {0.20653113722801208496f, -0.01961406879127025604f, -0.15337279438972473145f, 0.00479210214689373970f, 0.13427193462848663330f, 0.09101000428199768066f, -0.22695855796337127686f, 0.21087379753589630127f, 0.06912343204021453857f, -0.14554777741432189941f},
  {0.04062440246343612671f, 0.41346463561058044434f, 0.17606282234191894531f, 0.09858141094446182251f, -0.16192777454853057861f, 0.03383002430200576782f, -0.22248403728008270264f, 0.44221106171607971191f, 0.13649435341358184814f, 0.20438256859779357910f},
  {0.07518325001001358032f, -0.25159874558448791504f, -0.06926832348108291626f, -0.08780904859304428101f, -0.02684513665735721588f, -0.07958633452653884888f, -0.25755435228347778320f, -0.22698162496089935303f, -0.08872522413730621338f, 0.02821762673556804657f},
  {0.16184894740581512451f, -0.03603668883442878723f, -0.11169020831584930420f, 0.27111110091209411621f, 0.08936715871095657349f, -0.01843762397766113281f, -0.15119917690753936768f, 0.07257190346717834473f, -0.19599460065364837646f, -0.06029487773776054382f},
  {0.06933455914258956909f, -0.21305646002292633057f, -0.17063058912754058838f, -0.05346363782882690430f, -0.15849755704402923584f, -0.14118038117885589600f, 0.13214969635009765625f, 0.07098230719566345215f, 0.02604485303163528442f, 0.19813603162765502930f},
  {-0.25960209965705871582f, 0.18923790752887725830f, -0.17207382619380950928f, 0.07472612708806991577f, -0.33238595724105834961f, -0.13004507124423980713f, -0.18120671808719635010f, 0.05090648308396339417f, 0.08994151651859283447f, 0.09376387298107147217f},
  {-0.16895586252212524414f, 0.05353734269738197327f, -0.00339052989147603512f, 0.07438267767429351807f, 0.12827360630035400391f, -0.04403145238757133484f, -0.17359983921051025391f, 0.10996060073375701904f, 0.19178394973278045654f, -0.28961837291717529297f},
  {0.12304943799972534180f, -0.25933885574340820312f, 0.18345242738723754883f, -0.16503329575061798096f, -0.08199566602706909180f, -0.14917278289794921875f, 0.22305996716022491455f, 0.16055749356746673584f, -0.00824657175689935684f, 0.15024642646312713623f},
  {-0.11802880465984344482f, 0.27592936158180236816f, 0.02219157479703426361f, -0.13839000463485717773f, 0.36897975206375122070f, -0.05602848157286643982f, 0.00501497089862823486f, -0.22716732323169708252f, -0.19080355763435363770f, -0.19249412417411804199f},
  {0.16082033514976501465f, 0.11611936986446380615f, 0.07593702524900436401f, 0.18726982176303863525f, -0.04732123762369155884f, 0.08976832777261734009f, -0.29530963301658630371f, -0.15250009298324584961f, -0.11113110184669494629f, -0.07954563200473785400f},
  {0.02604281157255172729f, -0.14591658115386962891f, -0.23116254806518554688f, 0.12459349632263183594f, -0.13112096488475799561f, -0.03543366491794586182f, -0.05410398170351982117f, -0.18852326273918151855f, -0.01561790518462657928f, 0.06295797973871231079f},
  {0.21282881498336791992f, -0.10899468511343002319f, -0.15553164482116699219f, 0.19248136878013610840f, 0.06590101122856140137f, -0.21105992794036865234f, 0.10909314453601837158f, 0.12424440681934356689f, -0.26752534508705139160f, 0.13566944003105163574f},
  {-0.17970517277717590332f, 0.15498615801334381104f, 0.39272293448448181152f, 0.14473879337310791016f, 0.01283169072121381760f, 0.36460125446319580078f, 0.16310974955558776855f, -0.34224888682365417480f, 0.11714144796133041382f, 0.04027997702360153198f},
  {0.17080539464950561523f, 0.31268346309661865234f, 0.16398642957210540771f, -0.02258358150720596313f, 0.22529140114784240723f, -0.24513910710811614990f, 0.19466564059257507324f, -0.20007325708866119385f, 0.06727082282304763794f, -0.18911868333816528320f},
  {0.10693635046482086182f, 0.04737954586744308472f, 0.05736409872770309448f, 0.17067997157573699951f, 0.04529284685850143433f, -0.15233875811100006104f, 0.15832258760929107666f, -0.01772943325340747833f, -0.19157794117927551270f, 0.20136064291000366211f},
  {0.07652132958173751831f, 0.16700838506221771240f, 0.22225590050220489502f, 0.14588475227355957031f, 0.16075484454631805420f, -0.29979464411735534668f, -0.23412856459617614746f, -0.13199749588966369629f, 0.25870355963706970215f, 0.30558878183364868164f},
  {0.00664336699992418289f, -0.21038834750652313232f, 0.14417788386344909668f, -0.02373700216412544250f, -0.32357376813888549805f, 0.27219650149345397949f, 0.27969974279403686523f, -0.03762164711952209473f, 0.06774403154850006104f, 0.03909607976675033569f},
  {-0.25423341989517211914f, -0.03938923403620719910f, 0.05697499960660934448f, 0.12438678741455078125f, 0.43934509158134460449f, 0.28247067332267761230f, -0.39736208319664001465f, -0.35986882448196411133f, 0.36435189843177795410f, 0.13826631009578704834f},
  {-0.25356337428092956543f, 0.35128962993621826172f, 0.14448940753936767578f, 0.43460968136787414551f, -0.37308999896049499512f, 0.30649849772453308105f, 0.37070786952972412109f, 0.33581030368804931641f, -0.49155616760253906250f, 0.02501770853996276855f},
  {0.09821147471666336060f, -0.22095677256584167480f, 0.06086425110697746277f, -0.20152823626995086670f, -0.20250876247882843018f, -0.16879479587078094482f, -0.13545764982700347900f, 0.21936389803886413574f, 0.17948658764362335205f, -0.07936593145132064819f},
  {-0.34660285711288452148f, 0.13675944507122039795f, 0.39862531423568725586f, 0.09476088732481002808f, 0.15614171326160430908f, 0.05481576174497604370f, -0.37645334005355834961f, 0.37976101040840148926f, 0.44969511032104492188f, 0.29421094059944152832f},
  {-0.10867945849895477295f, 0.08939201384782791138f, -0.01676391623914241791f, -0.01778129301965236664f, 0.32575675845146179199f, -0.05983008444309234619f, 0.11418748646974563599f, -0.20736511051654815674f, -0.00920729991048574448f, -0.04230137169361114502f},
  {0.25295120477676391602f, 0.10328733175992965698f, -0.25918504595756530762f, -0.07307629287242889404f, 0.14856173098087310791f, 0.02077775448560714722f, 0.02873183228075504303f, -0.04788712784647941589f, -0.25099259614944458008f, -0.06636995822191238403f},
  {-0.09077702462673187256f, -0.13158656656742095947f, 0.10073805600404739380f, -0.23759488761425018311f, -0.09565148502588272095f, 0.29513940215110778809f, 0.25366100668907165527f, -0.04939936473965644836f, 0.15521875023841857910f, -0.34034430980682373047f},
  {-0.30291384458541870117f, 0.04023357480764389038f, -0.21558026969432830811f, -0.20109863579273223877f, -0.03729172050952911377f, -0.21389977633953094482f, 0.16256028413772583008f, 0.00495473388582468033f, 0.12266508489847183228f, 0.24836315214633941650f},
  {0.07101985812187194824f, -0.24146352708339691162f, 0.10152500867843627930f, -0.06954586505889892578f, -0.10483171790838241577f, 0.25543129444122314453f, 0.08051181584596633911f, -0.02353424020111560822f, 0.03095652535557746887f, -0.13815180957317352295f},
  {-0.02227241918444633484f, -0.00226353108882904053f, 0.10798016935586929321f, -0.16402722895145416260f, 0.19492289423942565918f, 0.30073449015617370605f, 0.24863885343074798584f, -0.08952582627534866333f, 0.07397072762250900269f, 0.13300572335720062256f},
  {-0.06440953165292739868f, -0.27815392613410949707f, 0.08033501356840133667f, -0.12639978528022766113f, -0.10592817515134811401f, -0.05462401360273361206f, 0.12246672809123992920f, -0.04371201246976852417f, -0.18018788099288940430f, 0.05556022003293037415f},
  {-0.19757513701915740967f, 0.34226489067077636719f, 0.08803009986877441406f, 0.13558170199394226074f, 0.16811169683933258057f, 0.01352695561945438385f, -0.28077989816665649414f, 0.18456053733825683594f, -0.09184543043375015259f, -0.19389134645462036133f},
  {-0.10947588831186294556f, 0.21479856967926025391f, 0.30253431200981140137f, -0.02387374825775623322f, -0.03779359534382820129f, 0.21893250942230224609f, -0.07213487476110458374f, -0.21360141038894653320f, -0.20991161465644836426f, 0.23381635546684265137f},
  {0.08347667753696441650f, -0.10866926610469818115f, -0.04522683843970298767f, -0.18172439932823181152f, 0.10113526135683059692f, -0.09345556795597076416f, -0.15293616056442260742f, 0.15549030900001525879f, 0.03679538890719413757f, 0.21134592592716217041f},
  {0.18441013991832733154f, -0.16132795810699462891f, 0.23548753559589385986f, -0.00718711456283926964f, -0.20519614219665527344f, -0.12548011541366577148f, 0.13709409534931182861f, 0.14360952377319335938f, 0.18413251638412475586f, 0.08180206269025802612f},
  {-0.34352993965148925781f, 0.09546413272619247437f, -0.27787679433822631836f, -0.11565045267343521118f, -0.11910298466682434082f, 0.19993808865547180176f, 0.23987202346324920654f, 0.23977288603782653809f, 0.11755276471376419067f, -0.21938884258270263672f},
  {-0.12771262228488922119f, 0.34292277693748474121f, 0.02794281579554080963f, 0.26493537425994873047f, -0.12477426975965499878f, 0.10027921944856643677f, -0.22476901113986968994f, -0.25974541902542114258f, 0.05742953717708587646f, 0.12668588757514953613f},
  {-0.15335996448993682861f, -0.23908096551895141602f, -0.16620349884033203125f, -0.00887680239975452423f, 0.18216420710086822510f, -0.12609581649303436279f, -0.10055944323539733887f, -0.04971416667103767395f, -0.12428025901317596436f, 0.19769261777400970459f},
  {0.15483398735523223877f, -0.03960078209638595581f, -0.36835959553718566895f, 0.11492723971605300903f, -0.08311732858419418335f, -0.19091671705245971680f, 0.05918650329113006592f, 0.21445235610008239746f, 0.21537587046623229980f, -0.30870079994201660156f},
  {0.27300381660461425781f, 0.04496008530259132385f, 0.15576364099979400635f, -0.17529827356338500977f, 0.20275592803955078125f, -0.13765816390514373779f, -0.07479163259267807007f, 0.07780747860670089722f, 0.09476590156555175781f, -0.17846249043941497803f},
  {-0.15115354955196380615f, 0.17111706733703613281f, -0.10686628520488739014f, -0.09393712133169174194f, -0.22378408908843994141f, -0.18277305364608764648f, 0.03658620268106460571f, -0.04152026027441024780f, 0.04918014258146286011f, 0.03681226819753646851f},
  {0.37006980180740356445f, 0.01791653409600257874f, 0.10447814315557479858f, 0.20446224510669708252f, 0.20799715816974639893f, 0.30027318000793457031f, 0.17298752069473266602f, -0.33904099464416503906f, -0.15292583405971527100f, -0.15836799144744873047f},
  {-0.37606197595596313477f, 0.27655082941055297852f, -0.00604426115751266479f, 0.22668793797492980957f, -0.19331735372543334961f, 0.04241403192281723022f, 0.25678363442420959473f, -0.17752598226070404053f, -0.13869908452033996582f, -0.01843345537781715393f},
  {-0.16912485659122467041f, -0.18977241218090057373f, -0.23898859322071075439f, -0.22062620520591735840f, -0.21048930287361145020f, -0.22590173780918121338f, -0.01613414101302623749f, -0.00911922194063663483f, -0.02077227272093296051f, 0.17453876137733459473f},
  {-0.08457804471254348755f, 0.36584687232971191406f, 0.23130361735820770264f, 0.40805038809776306152f, -0.07195827364921569824f, 0.30291247367858886719f, 0.23852799832820892334f, -0.14165794849395751953f, -0.17100806534290313721f, 0.19542762637138366699f},
  {-0.01103523746132850647f, -0.20369924604892730713f, 0.04976133629679679871f, 0.04529142007231712341f, -0.09725040942430496216f, 0.36570501327514648438f, -0.11689630150794982910f, -0.22475343942642211914f, 0.49700757861137390137f, 0.13505956530570983887f},
  {0.03411525115370750427f, 0.11688379198312759399f, -0.31668934226036071777f, -0.23428955674171447754f, -0.09628938883543014526f, 0.19316267967224121094f, -0.05646526068449020386f, -0.28620064258575439453f, -0.27776303887367248535f, -0.01034661103039979935f},
  {0.28208881616592407227f, 0.25541964173316955566f, 0.36747136712074279785f, -0.19523906707763671875f, -0.16360947489738464355f, 0.22265863418579101562f, 0.02767422795295715332f, -0.04116075858473777771f, -0.07415296882390975952f, 0.01042853668332099915f},
  {0.14718241989612579346f, 0.21570099890232086182f, -0.21838466823101043701f, -0.30507355928421020508f, 0.16009001433849334717f, 0.21500609815120697021f, -0.00676331762224435806f, -0.04687198624014854431f, 0.01576345041394233704f, -0.13282097876071929932f}
};
static const float tensor_sequential_1_1_dense_4_1_BiasAdd_ReadVariableOp_0[10] = 
{0.01684337295591831207f, -0.03253574669361114502f, 0.03897712379693984985f, 0.08557188510894775391f, 0.04484352469444274902f, 0.01291574910283088684f, -0.06335423886775970459f, -0.05627733469009399414f, 0.04590747877955436707f, 0.03683563321828842163f};
static const float tensor_sequential_1_1_dense_3_1_Cast_ReadVariableOp_0[784][128] = 
{
  {0.05497337132692337036f, -0.00518012791872024536f, -0.07554721832275390625f, 0.01087077707052230835f, 0.04885172098875045776f, 0.04653110355138778687f, -0.00836776196956634521f, -0.03500292077660560608f, 0.05395538359880447388f, 0.02807739377021789551f, 0.05361177772283554077f, 0.07257709652185440063f, 0.03891997039318084717f, 0.01464023441076278687f, -0.03359648585319519043f, 0.01560455560684204102f, 0.07795957475900650024f, 0.06223598867654800415f, -0.04592281579971313477f, -0.06570216268301010132f, 0.05344662815332412720f, 0.05242434889078140259f, 0.01139203459024429321f, 0.06361741572618484497f, -0.03646317496895790100f, 0.02237462252378463745f, 0.05944434553384780884f, 0.03380746394395828247f, -0.06114312261343002319f, 0.00120347738265991211f, 0.03037812560796737671f, -0.05171107873320579529f, 0.05248462408781051636f, 0.04821119457483291626f, 0.00300760567188262939f, 0.07835652679204940796f, -0.00546736270189285278f, -0.07154743373394012451f, 0.01528636366128921509f, 0.05209035426378250122f, -0.03346819430589675903f, 0.00111630558967590332f, 0.06197760254144668579f, 0.03141681104898452759f, -0.06235083565115928650f, -0.07107084244489669800f, 0.00776628404855728149f, -0.03727791830897331238f, -0.03007490560412406921f, 0.04824968427419662476f, -0.01661559939384460449f, -0.00762803107500076294f, 0.06073359400033950806f, -0.04114851728081703186f, 0.07823377102613449097f, 0.05904220789670944214f, 0.06921570748090744019f, -0.05612595379352569580f, -0.04711349308490753174f, 0.01125013083219528198f, 0.06765667349100112915f, -0.00297324359416961670f, 0.01938038319349288940f, -0.05208979919552803040f, 0.04854061454534530640f, -0.00303717702627182007f, 0.01109428703784942627f, 0.03812522441148757935f, -0.08006821572780609131f, -0.01268781721591949463f, 0.07113154977560043335f, 0.06915817409753799438f, -0.04889132082462310791f, 0.06010254472494125366f, 0.00684224069118499756f, -0.02372553944587707520f, -0.07035596668720245361f, 0.02588151395320892334f, -0.02062669396400451660f, -0.02590278163552284241f, 0.02854245901107788086f, 0.01156041771173477173f, 0.00139593333005905151f, -0.01079535484313964844f, -0.06564062833786010742f, 0.04482147842645645142f, -0.06380416452884674072f, -0.02265433594584465027f, 0.01192475110292434692f, -0.00568728148937225342f, 0.05493406206369400024f, -0.07252794504165649414f, -0.06120084598660469055f, -0.07189473509788513184f, -0.07775965332984924316f, -0.06076316162943840027f, 0.02944523096084594727f, 0.04719411581754684448f, 0.03374923765659332275f, 0.05085401982069015503f, 0.00409436225891113281f, -0.00628746300935745239f, -0.05712617188692092896f, -0.03765238448977470398f, 0.06277585774660110474f, 0.02738318592309951782f, -0.06784711033105850220f, -0.04967788606882095337f, 0.00605490058660507202f, -0.06452074646949768066f, -0.01478490233421325684f, -0.01638495177030563354f, 0.05226821452379226685f, 0.05229661613702774048f, -0.03118521347641944885f, 0.04602602869272232056f, -0.00795080512762069702f, -0.04952954500913619995f, 0.05470671504735946655f, 0.05714891105890274048f, 0.05836761742830276489f, 0.01639071851968765259f, -0.03889599442481994629f, -0.05921426042914390564f, 0.00060436129570007324f, -0.03359381854534149170f, 0.00547637790441513062f, -0.04893554747104644775f},
  {0.04600811749696731567f, 0.02789071947336196899f, -0.03295629099011421204f, -0.03925897181034088135f, -0.05682893842458724976f, -0.01700992882251739502f, -0.02290588617324829102f, 0.06751870363950729370f, 0.00742418318986892700f, 0.06896256655454635620f, -0.01325116306543350220f, 0.01410009711980819702f, -0.06213805824518203735f, -0.05355664715170860291f, -0.03094011917710304260f, 0.03932182490825653076f, 0.02911180257797241211f, 0.07535966485738754272f, 0.04564411193132400513f, 0.05986269563436508179f, 0.01010267436504364014f, -0.00888660550117492676f, -0.04280759021639823914f, 0.05686820298433303833f, 0.05835562199354171753f, 0.01728138327598571777f, -0.03418949618935585022f, -0.03337713330984115601f, 0.03709923475980758667f, -0.07541476935148239136f, -0.06114524602890014648f, 0.04563894122838973999f, 0.03777431696653366089f, -0.05936780571937561035f, 0.07617219537496566772f, -0.01004700362682342529f, -0.07916581630706787109f, 0.03636985272169113159f, -0.01744285970926284790f, -0.06683094054460525513f, 0.08022420853376388550f, -0.03540852293372154236f, 0.00422304123640060425f, -0.04741169139742851257f, 0.05351533740758895874f, 0.06103473156690597534f, -0.04810305312275886536f, 0.03804240375757217407f, -0.02236725762486457825f, -0.06358028948307037354f, -0.04225254058837890625f, -0.00993596017360687256f, 0.06407772749662399292f, -0.00041116774082183838f, 0.01322896033525466919f, 0.07684228569269180298f, 0.02752975374460220337f, -0.00313210487365722656f, -0.00633238255977630615f, 0.04424729198217391968f, 0.06950075179338455200f, -0.07945815473794937134f, -0.02557103335857391357f, -0.03703342378139495850f, 0.02435140311717987061f, 0.02361357212066650391f, 0.00885529816150665283f, -0.04861994832754135132f, -0.06653276085853576660f, 0.02569162845611572266f, 0.02949462085962295532f, -0.01903853565454483032f, 0.07335241883993148804f, 0.03157284855842590332f, 0.07917260378599166870f, -0.02605820447206497192f, -0.02782274782657623291f, 0.03483319282531738281f, -0.00255271047353744507f, -0.02529770508408546448f, 0.05820923298597335815f, -0.07088604569435119629f, -0.05650324374437332153f, -0.05329070985317230225f, -0.02233198285102844238f, 0.00162354856729507446f, 0.02923654764890670776f, 0.00321164727210998535f, 0.05455280095338821411f, 0.07442667335271835327f, 0.07210966199636459351f, -0.03514302894473075867f, 0.06325805932283401489f, 0.05781341344118118286f, 0.07699049264192581177f, 0.04557872563600540161f, -0.04495025426149368286f, -0.06852301955223083496f, -0.07468319684267044067f, -0.05837217718362808228f, -0.05110205709934234619f, -0.06608055531978607178f, -0.02402758598327636719f, 0.03637272864580154419f, -0.04087331518530845642f, 0.03916982561349868774f, -0.01878613233566284180f, 0.04947110265493392944f, -0.07957220822572708130f, -0.07252622395753860474f, 0.06298840790987014771f, 0.04280942678451538086f, -0.04471492767333984375f, -0.00697267800569534302f, -0.05036859214305877686f, 0.04490319639444351196f, -0.01154600828886032104f, 0.02476199716329574585f, -0.02721045911312103271f, 0.03970431536436080933f, -0.01184639334678649902f, -0.00785113871097564697f, -0.07345527410507202148f, 0.03870489448308944702f, 0.04909897595643997192f, -0.06382878124713897705f, 0.00526759773492813110f, -0.04038357362151145935f},
  {-0.05031870305538177490f, 0.02228205651044845581f, -0.06184597313404083252f, 0.04061692953109741211f, -0.06717847287654876709f, -0.07657696306705474854f, -0.04931034520268440247f, 0.04181178659200668335f, 0.04797374457120895386f, -0.00241400301456451416f, -0.06100222468376159668f, 0.04439225047826766968f, -0.00146998465061187744f, -0.03104601427912712097f, 0.01497016102075576782f, 0.02770487964153289795f, 0.06554480642080307007f, 0.05672477930784225464f, -0.07830860465764999390f, -0.05650080740451812744f, 0.04970423132181167603f, -0.08091794699430465698f, -0.02935240790247917175f, 0.00605016201734542847f, -0.00100921094417572021f, -0.04571473598480224609f, 0.04194175451993942261f, 0.02104666829109191895f, 0.04510968178510665894f, -0.01613603532314300537f, -0.04051205515861511230f, 0.08098580688238143921f, -0.00825159251689910889f, 0.02789120376110076904f, -0.06639890372753143311f, -0.05955171585083007812f, -0.02895459905266761780f, -0.01674963533878326416f, -0.00212344527244567871f, 0.07490716129541397095f, -0.01274198293685913086f, 0.00364260375499725342f, 0.00549714267253875732f, -0.07040785253047943115f, 0.06233606487512588501f, 0.00773181766271591187f, 0.07301267236471176147f, -0.05783126503229141235f, -0.06623332947492599487f, 0.02635107934474945068f, -0.04494630917906761169f, 0.00245689600706100464f, -0.04220701754093170166f, -0.07614892721176147461f, 0.06683693081140518188f, 0.04477217048406600952f, -0.07831922173500061035f, 0.07608205825090408325f, -0.04009699821472167969f, -0.02694906294345855713f, -0.04759538546204566956f, 0.04488914459943771362f, -0.01211799681186676025f, 0.01802404969930648804f, 0.00406821817159652710f, -0.07866172492504119873f, -0.04533400386571884155f, 0.07311900705099105835f, 0.05891080945730209351f, -0.01222756505012512207f, -0.03029360249638557434f, 0.05746494978666305542f, 0.07110806554555892944f, 0.01797164231538772583f, 0.00667671859264373779f, 0.03385142236948013306f, -0.02844455093145370483f, -0.07884524762630462646f, 0.07982581108808517456f, -0.01645112782716751099f, -0.05442640930414199829f, 0.02326542139053344727f, 0.03358836472034454346f, -0.07197643816471099854f, -0.04386460036039352417f, 0.03850783407688140869f, -0.04943789914250373840f, -0.05081113055348396301f, 0.04686155170202255249f, -0.00067380070686340332f, 0.02342163771390914917f, 0.05060399323701858521f, 0.00949431210756301880f, 0.05986573547124862671f, 0.06605998426675796509f, -0.07752786576747894287f, 0.03066725283861160278f, -0.02258351817727088928f, 0.02063141018152236938f, 0.00591979920864105225f, 0.06552926450967788696f, 0.06607190519571304321f, 0.02329454571008682251f, 0.00094628334045410156f, -0.06735506653785705566f, 0.07373627275228500366f, -0.01341550052165985107f, 0.02834191918373107910f, -0.02405288070440292358f, 0.07158439606428146362f, 0.04714425653219223022f, -0.05404696986079216003f, -0.00564711540937423706f, 0.06496525555849075317f, 0.02598469704389572144f, 0.03829095512628555298f, -0.01048797369003295898f, 0.03918181359767913818f, -0.00554428994655609131f, -0.06568965315818786621f, -0.03432745486497879028f, -0.02169956266880035400f, 0.05181585997343063354f, 0.05259730666875839233f, -0.06120792403817176819f, -0.07714521884918212891f, -0.06685890257358551025f, -0.04355895891785621643f},
  {-0.04295665025711059570f, 0.08049694448709487915f, -0.05768873915076255798f, 0.03631794452667236328f, 0.07525619119405746460f, 0.00071720033884048462f, 0.03430931270122528076f, -0.03718971833586692810f, 0.04862760752439498901f, -0.06748625636100769043f, 0.06710953265428543091f, 0.04760787636041641235f, -0.02665125206112861633f, 0.04834801703691482544f, 0.02334523200988769531f, 0.06149081140756607056f, 0.04000195115804672241f, -0.07668165862560272217f, 0.01403076946735382080f, -0.01797891408205032349f, 0.06553532928228378296f, 0.00011669099330902100f, 0.06167633086442947388f, 0.05577648431062698364f, 0.01553654670715332031f, -0.03011530265212059021f, 0.04601173847913742065f, 0.05276563018560409546f, 0.03579609841108322144f, 0.06913240998983383179f, 0.07189067453145980835f, -0.04627368971705436707f, -0.05130741000175476074f, 0.00292723625898361206f, 0.02103488892316818237f, 0.07114752382040023804f, 0.02785987406969070435f, -0.07050897181034088135f, 0.00963832437992095947f, -0.05918701365590095520f, 0.07218486815690994263f, -0.02622913569211959839f, -0.04521010071039199829f, 0.06808417290449142456f, -0.04820432886481285095f, 0.05791435390710830688f, -0.05035033822059631348f, 0.01834195107221603394f, -0.07188866287469863892f, -0.06284864246845245361f, 0.00116047263145446777f, 0.05447209626436233521f, 0.04797715693712234497f, 0.02101442962884902954f, -0.01201183348894119263f, -0.02543821930885314941f, 0.03346920013427734375f, 0.03412938863039016724f, -0.01577278226613998413f, -0.02397162094712257385f, -0.06194283813238143921f, -0.05796090513467788696f, 0.05811405926942825317f, -0.08087456971406936646f, -0.06159163266420364380f, 0.02733545750379562378f, -0.03091281279921531677f, -0.05958896130323410034f, -0.06342238932847976685f, 0.00695606321096420288f, -0.07307079434394836426f, -0.00957319140434265137f, 0.06069456785917282104f, 0.01377493888139724731f, 0.02380087971687316895f, 0.06837243586778640747f, 0.01190452277660369873f, -0.05880947411060333252f, -0.00808269530534744263f, -0.07089215517044067383f, 0.06635098904371261597f, -0.03387955948710441589f, -0.05141069740056991577f, -0.04650596156716346741f, -0.07696053385734558105f, 0.00064193457365036011f, -0.04838984087109565735f, 0.04510255903005599976f, 0.01888738572597503662f, -0.02006893977522850037f, -0.05380680784583091736f, 0.04769267886877059937f, -0.05628672987222671509f, 0.04467552155256271362f, 0.01861166208982467651f, 0.05954345315694808960f, -0.01265854388475418091f, -0.07600966840982437134f, -0.04781831800937652588f, 0.02635671198368072510f, 0.07870050519704818726f, -0.03902509436011314392f, -0.05749936029314994812f, 0.02069637179374694824f, -0.00083027034997940063f, 0.07817173749208450317f, -0.07485610246658325195f, -0.07468146085739135742f, -0.00656636059284210205f, 0.05554092675447463989f, -0.04889379814267158508f, 0.01026453822851181030f, -0.07997831702232360840f, -0.02820545062422752380f, -0.01402840763330459595f, -0.06374864280223846436f, 0.03836277872323989868f, -0.05606583133339881897f, 0.07501808553934097290f, 0.05552608519792556763f, -0.02067484706640243530f, 0.00572997331619262695f, -0.07084949314594268799f, 0.00942235440015792847f, 0.07259128242731094360f, -0.05066601932048797607f, 0.01094441115856170654f, 0.01580942422151565552f},
  {0.05298138409852981567f, 0.06708382815122604370f, 0.02538194507360458374f, 0.02145932614803314209f, -0.07444880157709121704f, 0.07420382648706436157f, 0.04353890568017959595f, 0.03763155639171600342f, -0.07329522818326950073f, 0.06123683601617813110f, 0.06731527298688888550f, 0.07162564247846603394f, -0.00196947157382965088f, -0.02711355313658714294f, 0.07255121320486068726f, 0.04620360583066940308f, -0.04366841539740562439f, -0.05868040770292282104f, -0.05918463319540023804f, -0.04766289517283439636f, 0.04167255014181137085f, 0.05345707386732101440f, -0.06040673702955245972f, -0.03483684360980987549f, -0.06458365917205810547f, 0.00133147835731506348f, -0.07276482135057449341f, -0.03445963189005851746f, -0.04262002557516098022f, -0.05573746562004089355f, 0.07803002744913101196f, -0.01202028244733810425f, -0.04948636144399642944f, 0.06437803059816360474f, 0.05873262137174606323f, 0.04942647367715835571f, -0.05486012622714042664f, 0.00442986190319061279f, -0.04930999502539634705f, 0.00648272037506103516f, 0.00497058033943176270f, 0.01438641548156738281f, -0.05053822696208953857f, -0.03770873695611953735f, 0.02298486232757568359f, -0.01210113614797592163f, -0.05169918388128280640f, -0.05360599979758262634f, 0.03351959586143493652f, -0.02969593182206153870f, 0.07974032312631607056f, -0.02545017004013061523f, -0.02480980008840560913f, 0.05548890680074691772f, -0.04709842801094055176f, -0.06820751726627349854f, 0.05243069678544998169f, -0.05877052247524261475f, -0.02396754175424575806f, -0.04253298416733741760f, 0.00952823460102081299f, 0.00406883656978607178f, 0.02633060514926910400f, -0.05735664069652557373f, 0.02965419739484786987f, -0.03473394736647605896f, -0.00972043722867965698f, -0.04999428242444992065f, -0.06197410821914672852f, 0.01494777202606201172f, -0.02972700819373130798f, -0.06960010528564453125f, 0.06860116869211196899f, 0.07332543283700942993f, -0.03224994242191314697f, 0.08017953485250473022f, -0.02103032544255256653f, -0.02668975293636322021f, -0.00366294384002685547f, 0.00504940748214721680f, -0.00099740922451019287f, 0.03746286779642105103f, 0.06672202795743942261f, 0.06548685580492019653f, -0.05054532736539840698f, 0.07930975407361984253f, -0.05733010917901992798f, -0.07180800288915634155f, -0.00138263404369354248f, 0.07558082789182662964f, -0.02509324252605438232f, -0.00678619742393493652f, -0.06150575354695320129f, 0.02938315272331237793f, -0.01844578236341476440f, -0.06870731711387634277f, 0.01691644638776779175f, -0.03076373413205146790f, -0.02532414346933364868f, -0.01804723590612411499f, -0.04609370976686477661f, 0.02203697711229324341f, -0.00065572559833526611f, -0.00675786286592483521f, 0.03700153529644012451f, 0.03292119503021240234f, 0.07647191733121871948f, -0.02484928816556930542f, 0.08045471459627151489f, 0.07074106484651565552f, 0.03715366870164871216f, -0.06011956185102462769f, 0.02489197254180908203f, 0.03883557766675949097f, -0.04678207263350486755f, -0.06501761078834533691f, 0.03439302742481231689f, 0.04023776203393936157f, 0.06610365957021713257f, 0.00561001896858215332f, -0.01533685624599456787f, 0.02114043384790420532f, -0.03209536895155906677f, -0.07461327314376831055f, 0.06114903837442398071f, 0.06066974252462387085f, 0.06697589904069900513f, -0.07080537080764770508f},
  {-0.05028605833649635315f, 0.00314171612262725830f, -0.01625633239746093750f, -0.05212342739105224609f, -0.01429021358489990234f, 0.06330925971269607544f, -0.04671376943588256836f, -0.06599423289299011230f, -0.03288874402642250061f, 0.02558921277523040771f, 0.02841026335954666138f, -0.03860276564955711365f, -0.02978937327861785889f, 0.06290375441312789917f, 0.04872009903192520142f, -0.07597422599792480469f, -0.02422777563333511353f, 0.07238990813493728638f, -0.00135213136672973633f, 0.07619512826204299927f, 0.00008719414472579956f, 0.03554764389991760254f, 0.05308084934949874878f, 0.03657592087984085083f, 0.03954382240772247314f, -0.00802792608737945557f, -0.07994166761636734009f, 0.04736971110105514526f, -0.01256766915321350098f, 0.00089441239833831787f, 0.00244625657796859741f, 0.04267284274101257324f, 0.04723683744668960571f, -0.01944949477910995483f, -0.07820916920900344849f, -0.06542697548866271973f, -0.05321091786026954651f, 0.08020470291376113892f, 0.05286592990159988403f, -0.02338064089417457581f, 0.01837296783924102783f, -0.00982408970594406128f, 0.07830374687910079956f, 0.05121039599180221558f, -0.04905950650572776794f, 0.00046352297067642212f, 0.04876670986413955688f, -0.06432116031646728516f, -0.07601699978113174438f, -0.01101393252611160278f, -0.06127270683646202087f, -0.08069705963134765625f, 0.02438060939311981201f, -0.02064284309744834900f, 0.05370961874723434448f, -0.01754464954137802124f, 0.06693921238183975220f, 0.06111972779035568237f, 0.04152657836675643921f, -0.00744719803333282471f, 0.03234444558620452881f, 0.01788928359746932983f, -0.05884250253438949585f, 0.06883212178945541382f, -0.01070506125688552856f, -0.01888021454215049744f, -0.05257776379585266113f, 0.06215540319681167603f, 0.00440833717584609985f, -0.00591547042131423950f, 0.00005685538053512573f, -0.02062758430838584900f, 0.02212301641702651978f, -0.04515392333269119263f, -0.02307159826159477234f, -0.07662343233823776245f, 0.06596101075410842896f, 0.02259581536054611206f, 0.02152178436517715454f, -0.01219131052494049072f, -0.05493181198835372925f, -0.06980220973491668701f, 0.00398987531661987305f, 0.05857584625482559204f, -0.05631243437528610229f, -0.00001042336225509644f, -0.02097667753696441650f, 0.00331309437751770020f, -0.08018837124109268188f, -0.02611231431365013123f, -0.06339579820632934570f, 0.04802753776311874390f, 0.03204151242971420288f, 0.02628225833177566528f, 0.06391646713018417358f, -0.06407681852579116821f, 0.00756262987852096558f, 0.03434311598539352417f, -0.03230511397123336792f, -0.04856779053807258606f, -0.01877327263355255127f, -0.06987208127975463867f, -0.08076203614473342896f, 0.07247138768434524536f, -0.02440700307488441467f, 0.01482162624597549438f, -0.01350321620702743530f, 0.00020781159400939941f, -0.04312966763973236084f, -0.04793287813663482666f, -0.07927030324935913086f, 0.06128583103418350220f, -0.02091750502586364746f, 0.07720781117677688599f, -0.05736579000949859619f, -0.05481822043657302856f, 0.00461454689502716064f, 0.01935572177171707153f, 0.04497788101434707642f, 0.05275236815214157104f, 0.07675262540578842163f, 0.06435548514127731323f, -0.07111243903636932373f, 0.04223836958408355713f, 0.06909156590700149536f, -0.07442644238471984863f, -0.02675701305270195007f, -0.02629148215055465698f},
  {-0.04115824401378631592f, 0.02403859049081802368f, -0.00589013844728469849f, 0.01202006638050079346f, 0.02438493818044662476f, 0.05229973047971725464f, 0.06852547079324722290f, 0.06935218721628189087f, -0.04283876344561576843f, -0.04696410521864891052f, 0.05301175266504287720f, -0.04697282612323760986f, -0.07448670268058776855f, -0.07014076411724090576f, -0.05091917514801025391f, 0.00229848921298980713f, -0.04302653670310974121f, -0.02782514318823814392f, -0.07314907014369964600f, 0.01745773106813430786f, 0.04740364104509353638f, 0.07068713754415512085f, 0.00492426753044128418f, -0.03673209622502326965f, 0.02169898152351379395f, 0.06620886176824569702f, -0.03406108915805816650f, -0.06812171638011932373f, 0.02687464654445648193f, 0.04773054271936416626f, 0.00433477759361267090f, -0.03407116606831550598f, -0.01698069274425506592f, 0.03752266615629196167f, 0.02182899415493011475f, 0.03005989640951156616f, -0.00055994093418121338f, -0.05924906954169273376f, -0.07287249714136123657f, -0.05011503025889396667f, 0.05738324671983718872f, 0.02280594408512115479f, -0.02933187037706375122f, 0.07360059767961502075f, 0.06680319458246231079f, -0.00237671285867691040f, 0.01680730283260345459f, 0.07039413601160049438f, -0.01408431679010391235f, 0.06716746836900711060f, -0.05647353827953338623f, 0.06717871874570846558f, 0.05054082721471786499f, -0.05903095379471778870f, 0.01553327590227127075f, 0.05743519216775894165f, 0.06104835122823715210f, 0.06588698178529739380f, 0.05793990939855575562f, 0.06593016535043716431f, -0.05286431685090065002f, -0.00827619433403015137f, -0.00041735917329788208f, -0.05425029247999191284f, 0.00311085581779479980f, 0.02608680725097656250f, 0.01293132454156875610f, 0.00791306048631668091f, 0.03841576725244522095f, -0.07696769386529922485f, -0.03574009984731674194f, -0.05768845230340957642f, 0.00176026672124862671f, 0.00205341726541519165f, -0.08089485764503479004f, -0.02147879824042320251f, -0.05978658050298690796f, -0.02546270191669464111f, -0.03140116482973098755f, 0.04873978346586227417f, -0.03833127394318580627f, -0.05410225689411163330f, -0.06720685958862304688f, 0.00361115485429763794f, 0.04722390323877334595f, -0.06672608852386474609f, 0.04034601897001266479f, 0.05437291413545608521f, 0.06704270094633102417f, 0.02675291150808334351f, -0.00820829719305038452f, 0.00853765010833740234f, -0.03305996581912040710f, 0.07194779068231582642f, 0.04607851058244705200f, -0.02362014725804328918f, 0.06177312880754470825f, 0.02662344276905059814f, 0.05367865413427352905f, -0.06216669827699661255f, 0.07225800305604934692f, 0.03053647279739379883f, -0.06668462604284286499f, -0.00690831989049911499f, 0.04824306815862655640f, -0.06007075309753417969f, 0.00225851684808731079f, -0.00659231096506118774f, 0.07696076482534408569f, 0.02780310064554214478f, 0.06253018230199813843f, 0.06481445580720901489f, -0.00215502083301544189f, -0.02736218646168708801f, 0.07492931932210922241f, -0.06307683885097503662f, 0.05467144399881362915f, 0.02911187708377838135f, -0.06119496747851371765f, -0.02100847288966178894f, -0.02637210488319396973f, -0.02080495655536651611f, 0.04953520745038986206f, 0.07684784382581710815f, 0.06753741949796676636f, 0.00936805456876754761f, 0.01553028076887130737f, 0.04377309232950210571f},
  {0.06094945222139358521f, -0.05304209515452384949f, 0.00938916951417922974f, 0.07652080804109573364f, -0.06737999618053436279f, 0.02787722647190093994f, 0.05990295857191085815f, 0.01402266323566436768f, -0.00334438681602478027f, 0.02657718956470489502f, 0.00925152003765106201f, -0.04848863929510116577f, -0.02166897058486938477f, -0.02167177572846412659f, 0.01886327564716339111f, 0.07569604367017745972f, -0.06221724674105644226f, -0.07144333422183990479f, 0.02514561265707015991f, 0.05055429786443710327f, -0.01330736279487609863f, -0.02361951023340225220f, -0.00290738046169281006f, 0.02128951251506805420f, -0.04637144505977630615f, -0.01009078323841094971f, 0.05743876844644546509f, 0.00123301148414611816f, -0.04898488149046897888f, -0.03480215370655059814f, -0.06519810855388641357f, 0.04849215596914291382f, 0.03675930202007293701f, 0.07860260456800460815f, -0.02366470173001289368f, -0.03656818345189094543f, -0.04033955931663513184f, -0.07051030546426773071f, -0.05370667576789855957f, 0.00260765105485916138f, -0.06450214236974716187f, 0.06989670544862747192f, 0.05836173146963119507f, -0.04261507466435432434f, -0.05467751622200012207f, -0.00790948420763015747f, 0.06729205697774887085f, 0.02915679663419723511f, -0.01754911988973617554f, 0.06646022945642471313f, -0.04032232612371444702f, -0.00339530408382415771f, 0.04232796281576156616f, 0.02477654069662094116f, 0.02372594922780990601f, 0.07723044604063034058f, 0.05805128067731857300f, 0.06468898802995681763f, -0.05325528234243392944f, 0.07939604669809341431f, -0.03230667859315872192f, 0.05298734456300735474f, -0.01346357911825180054f, -0.04889294505119323730f, -0.04172912985086441040f, -0.00744934380054473877f, 0.06401733309030532837f, -0.02924457564949989319f, 0.04350870102643966675f, -0.04796845838427543640f, -0.03458888828754425049f, 0.07355774194002151489f, 0.04917678982019424438f, -0.00861432403326034546f, 0.04681674391031265259f, -0.04933198541402816772f, 0.06182783097028732300f, 0.05200131982564926147f, -0.01804329454898834229f, 0.03118163347244262695f, -0.02965918928384780884f, -0.03201078623533248901f, -0.02061843872070312500f, 0.04307004809379577637f, 0.05255674570798873901f, -0.06956388801336288452f, 0.04610701650381088257f, 0.07695022970438003540f, -0.00897134840488433838f, 0.01433528959751129150f, -0.07704268395900726318f, -0.07931690663099288940f, -0.02112380415201187134f, 0.01134647428989410400f, -0.07835938781499862671f, 0.02261979877948760986f, 0.03840269148349761963f, 0.01630665361881256104f, 0.01852467656135559082f, 0.07608208805322647095f, 0.06786081939935684204f, -0.04714841768145561218f, -0.02024573087692260742f, -0.07482736557722091675f, 0.06201589852571487427f, 0.04849336296319961548f, -0.07652708888053894043f, -0.07121398299932479858f, -0.03632461652159690857f, -0.05013744533061981201f, 0.05345486849546432495f, 0.01418679207563400269f, -0.07725979387760162354f, 0.04126162827014923096f, -0.03102145716547966003f, 0.07170743495225906372f, -0.07852803915739059448f, -0.00430390983819961548f, 0.01611441373825073242f, 0.00810503214597702026f, 0.06300475448369979858f, -0.03825270384550094604f, 0.05611804872751235962f, 0.05257976800203323364f, 0.02855578809976577759f, 0.07145617157220840454f, 0.07659553736448287964f, -0.04845041036605834961f},
  {-0.01199127733707427979f, -0.06449031084775924683f, -0.06060706079006195068f, 0.04302278906106948853f, 0.04596526175737380981f, -0.04877943173050880432f, 0.02838626503944396973f, 0.04822549968957901001f, -0.07289633899927139282f, -0.07532536983489990234f, 0.05239108949899673462f, -0.05068396031856536865f, 0.04838674515485763550f, 0.02988536655902862549f, 0.05203121155500411987f, 0.06404805928468704224f, 0.00346890091896057129f, 0.03202354907989501953f, -0.05351352319121360779f, -0.05204168707132339478f, 0.05820962041616439819f, 0.03581559658050537109f, 0.00395572930574417114f, 0.04165834933519363403f, -0.00517320632934570312f, 0.00421404838562011719f, 0.05481839925050735474f, -0.07083445042371749878f, 0.05590463429689407349f, 0.01687838882207870483f, 0.06435012072324752808f, 0.05160940438508987427f, -0.03666562959551811218f, -0.07324893772602081299f, 0.05231898277997970581f, -0.05539481341838836670f, 0.05169463902711868286f, -0.03927030414342880249f, -0.04667944461107254028f, -0.05369965732097625732f, 0.05138336867094039917f, 0.05961816757917404175f, -0.07748984545469284058f, -0.07482964545488357544f, 0.02575861662626266479f, 0.00220447033643722534f, 0.05878936499357223511f, -0.08072995394468307495f, -0.05497814714908599854f, -0.01144910603761672974f, -0.07876253873109817505f, 0.01227068901062011719f, -0.03718515112996101379f, -0.01489584892988204956f, 0.01112246513366699219f, 0.07387953251600265503f, 0.02557612210512161255f, 0.04110322892665863037f, 0.01750955730676651001f, 0.06352598220109939575f, 0.01507012546062469482f, -0.04189745336771011353f, -0.03314946219325065613f, 0.07354303449392318726f, 0.06976272910833358765f, 0.02194185554981231689f, 0.06439062207937240601f, 0.03752659261226654053f, 0.01052019000053405762f, 0.06241896003484725952f, -0.07819704711437225342f, 0.04931452125310897827f, -0.03557224199175834656f, 0.04899428039789199829f, -0.05083725601434707642f, -0.06146404147148132324f, 0.03767406195402145386f, 0.02151927351951599121f, 0.05864097923040390015f, 0.07131459563970565796f, 0.03255616128444671631f, 0.07829276472330093384f, 0.03419895470142364502f, 0.06922636181116104126f, -0.03705935552716255188f, -0.02578777819871902466f, 0.02396492660045623779f, -0.01364038884639739990f, -0.02876384556293487549f, -0.03168284520506858826f, 0.01106435060501098633f, 0.03795389086008071899f, 0.06258510798215866089f, 0.00893984735012054443f, 0.04855079203844070435f, 0.01385633647441864014f, -0.01251824200153350830f, 0.06638743728399276733f, 0.01224719732999801636f, 0.01108857989311218262f, 0.05536185950040817261f, -0.00736650079488754272f, -0.04177679866552352905f, 0.04296769201755523682f, -0.05780575424432754517f, 0.00305626541376113892f, 0.05783105641603469849f, 0.06699978560209274292f, -0.03675980493426322937f, 0.01789171993732452393f, -0.02355039492249488831f, 0.01405509561300277710f, -0.03593050315976142883f, -0.03078376874327659607f, -0.00804048031568527222f, 0.04670599848031997681f, -0.08002499490976333618f, 0.02475745230913162231f, 0.07090077549219131470f, -0.00364420562982559204f, 0.05361311882734298706f, -0.02857664972543716431f, -0.01483499258756637573f, 0.07808855921030044556f, 0.00387092679738998413f, 0.07265288382768630981f, -0.05358495935797691345f, 0.04647231847047805786f},
  {0.01676518470048904419f, -0.02102537453174591064f, 0.05017133802175521851f, -0.08037894964218139648f, -0.03671208024024963379f, 0.04788704961538314819f, -0.00944937020540237427f, -0.01989493519067764282f, 0.07627204805612564087f, -0.02211307361721992493f, -0.00398268550634384155f, 0.02868136763572692871f, -0.03668889403343200684f, 0.02003642916679382324f, -0.06880737096071243286f, 0.00198502093553543091f, -0.03333050757646560669f, -0.03366906195878982544f, -0.02531599998474121094f, 0.04756652563810348511f, 0.03055368363857269287f, 0.04994850605726242065f, -0.04746106266975402832f, 0.05227547138929367065f, 0.00652170926332473755f, 0.04248116165399551392f, 0.01363626867532730103f, -0.02607847005128860474f, -0.05862160027027130127f, 0.06861803680658340454f, 0.01375527679920196533f, 0.00464151799678802490f, -0.01507192105054855347f, -0.01184399425983428955f, 0.01328473538160324097f, 0.01205153018236160278f, 0.04628822952508926392f, 0.06077427417039871216f, 0.06640879064798355103f, -0.03653587028384208679f, 0.06300946325063705444f, 0.07280062884092330933f, -0.00305808335542678833f, -0.03146414831280708313f, -0.07796865701675415039f, -0.06324438005685806274f, -0.05424615740776062012f, 0.03226295858621597290f, -0.04069673642516136169f, 0.02580560743808746338f, 0.02093744277954101562f, 0.04682276397943496704f, -0.07922676950693130493f, -0.00578093528747558594f, -0.02046127617359161377f, 0.06056917458772659302f, 0.05865376442670822144f, -0.02807809039950370789f, 0.07379636913537979126f, -0.04936909303069114685f, -0.02636819705367088318f, 0.05429307371377944946f, 0.00249768048524856567f, 0.06600163131952285767f, -0.01107844710350036621f, -0.05712962895631790161f, -0.02346265688538551331f, -0.00790062546730041504f, 0.05729822069406509399f, -0.02760275453329086304f, -0.00326616317033767700f, 0.06048660725355148315f, -0.04010823369026184082f, -0.02913017198443412781f, 0.04877624660730361938f, 0.01291208714246749878f, 0.06826110929250717163f, 0.07369863241910934448f, 0.00494099408388137817f, 0.00562137365341186523f, 0.03321507573127746582f, -0.03719472512602806091f, -0.02027701959013938904f, 0.00131649523973464966f, 0.06975565105676651001f, -0.04654018953442573547f, -0.03279663622379302979f, 0.06487608700990676880f, 0.03136979788541793823f, -0.06993373483419418335f, 0.00642441213130950928f, 0.04652350395917892456f, -0.04748304933309555054f, 0.05943290144205093384f, 0.07994622737169265747f, 0.07508599013090133667f, -0.05603467673063278198f, -0.04909410327672958374f, -0.07005537301301956177f, 0.00124447792768478394f, 0.05241022258996963501f, -0.07706178724765777588f, 0.07487794011831283569f, 0.03174128383398056030f, 0.05666805058717727661f, -0.05836179107427597046f, -0.04834623262286186218f, -0.05458148196339607239f, 0.05043631047010421753f, -0.05598082020878791809f, -0.00895400345325469971f, 0.05059578269720077515f, 0.00977055728435516357f, 0.01687322556972503662f, 0.06952267140150070190f, 0.06245791167020797729f, -0.06155982241034507751f, -0.05192664265632629395f, -0.02574707195162773132f, -0.03321217745542526245f, -0.02038212493062019348f, 0.04745752364397048950f, -0.01386845856904983521f, -0.05548887327313423157f, 0.05307603627443313599f, -0.00269369035959243774f, 0.04636090248823165894f, 0.07023254781961441040f},
  {0.06696314364671707153f, -0.03156086057424545288f, -0.07813972979784011841f, 0.07842265814542770386f, -0.07050129026174545288f, -0.01128803938627243042f, 0.04785714298486709595f, -0.05028671771287918091f, 0.07475065439939498901f, -0.04939568415284156799f, -0.03155704960227012634f, 0.05680509656667709351f, -0.07710421830415725708f, 0.05720826238393783569f, 0.02795214205980300903f, 0.02153242379426956177f, -0.07782688736915588379f, -0.04485532268881797791f, 0.04592397063970565796f, 0.03364697843790054321f, 0.02113419026136398315f, -0.03324385359883308411f, -0.07538757473230361938f, -0.06106118485331535339f, -0.00420182943344116211f, -0.03827931359410285950f, 0.00192454457283020020f, -0.03376598656177520752f, 0.01020377874374389648f, -0.06728775054216384888f, -0.01915336772799491882f, 0.05497016757726669312f, -0.07849663496017456055f, 0.03390333056449890137f, -0.00189799815416336060f, 0.07337056845426559448f, 0.07751689106225967407f, 0.03144463896751403809f, -0.04190950095653533936f, -0.00395622849464416504f, -0.07185058295726776123f, 0.07210499793291091919f, -0.07942009717226028442f, -0.02730637416243553162f, 0.06451454013586044312f, -0.00478425621986389160f, -0.01880918443202972412f, -0.07163894176483154297f, -0.08062100410461425781f, -0.00047139078378677368f, -0.00349178165197372437f, -0.05906017124652862549f, -0.00562247633934020996f, 0.04521890729665756226f, 0.00934844464063644409f, 0.02245130389928817749f, 0.05152604728937149048f, -0.02033142000436782837f, -0.03740891441702842712f, 0.02709191292524337769f, 0.06718321889638900757f, 0.02820856869220733643f, -0.06543405354022979736f, 0.06100413948297500610f, -0.07779181003570556641f, 0.05220339447259902954f, -0.07643673568964004517f, -0.04493654146790504456f, -0.04843288660049438477f, 0.00216556340456008911f, -0.06474760174751281738f, -0.05675139278173446655f, -0.00079888105392456055f, -0.05068922042846679688f, -0.02963579073548316956f, -0.02438050881028175354f, -0.05675655603408813477f, 0.03575626760721206665f, 0.04412541538476943970f, 0.03352572768926620483f, 0.04766679555177688599f, 0.07427016645669937134f, 0.05872891098260879517f, -0.00881712138652801514f, -0.00450959801673889160f, -0.01507037878036499023f, 0.03600008040666580200f, -0.00363352894783020020f, -0.05779798328876495361f, -0.01076123863458633423f, 0.05868404358625411987f, 0.06636003404855728149f, -0.02887906134128570557f, 0.05742705613374710083f, 0.00283120572566986084f, -0.06495203077793121338f, -0.03836900368332862854f, 0.03759195655584335327f, 0.04050439596176147461f, -0.03254096210002899170f, -0.00456769019365310669f, -0.05778259038925170898f, -0.01293923705816268921f, 0.00693691521883010864f, 0.04495014995336532593f, 0.03411763161420822144f, -0.04772686585783958435f, 0.00530753284692764282f, 0.00256990641355514526f, -0.00407341867685317993f, -0.00820473581552505493f, 0.04706258326768875122f, -0.00612586736679077148f, -0.06165803968906402588f, 0.04695647209882736206f, -0.00935234874486923218f, 0.07412273436784744263f, 0.05863209813833236694f, -0.01566149294376373291f, 0.00392064452171325684f, -0.07447001338005065918f, 0.05755772441625595093f, -0.07370208948850631714f, -0.06231405586004257202f, -0.00644855201244354248f, -0.01147258281707763672f, 0.06529325991868972778f, -0.01861539483070373535f},
  {-0.03059640154242515564f, 0.04581087082624435425f, 0.02196768671274185181f, 0.07352069765329360962f, -0.04659139737486839294f, 0.07133842259645462036f, 0.00585439801216125488f, -0.00196262449026107788f, -0.05151796340942382812f, 0.06049524992704391479f, 0.05103076249361038208f, 0.00675956904888153076f, -0.01140855252742767334f, 0.02217182517051696777f, 0.05810112506151199341f, -0.00600782781839370728f, -0.05391979962587356567f, -0.03419961035251617432f, 0.06326761096715927124f, -0.04708160459995269775f, 0.03291708976030349731f, 0.00509910285472869873f, -0.02850140631198883057f, 0.01834236085414886475f, -0.06643176078796386719f, 0.00735928863286972046f, -0.02119133621454238892f, 0.03273144364356994629f, -0.05044082179665565491f, 0.02008873969316482544f, -0.03079022839665412903f, 0.03430791944265365601f, -0.00833478569984436035f, 0.00134585052728652954f, 0.06566189974546432495f, 0.03147806972265243530f, 0.05915846675634384155f, 0.04026225954294204712f, -0.01777961105108261108f, -0.05102433636784553528f, 0.03713320940732955933f, -0.04167941212654113770f, -0.04972132295370101929f, 0.04120893031358718872f, -0.07630065083503723145f, -0.03863105922937393188f, -0.04581848531961441040f, -0.03693638369441032410f, -0.06051087379455566406f, -0.03652326017618179321f, 0.02099277079105377197f, -0.03068121895194053650f, -0.06605599820613861084f, 0.05087893456220626831f, -0.05904912948608398438f, -0.02895434573292732239f, -0.02006565034389495850f, -0.03993324190378189087f, 0.04940951615571975708f, -0.07218080759048461914f, 0.02453966438770294189f, 0.04941376298666000366f, -0.03139704465866088867f, 0.04038161784410476685f, -0.07053436338901519775f, -0.00148380547761917114f, 0.06921461969614028931f, 0.04074003547430038452f, -0.07976207137107849121f, -0.02865141257643699646f, 0.01821926981210708618f, -0.05700832232832908630f, 0.03405124694108963013f, -0.00907577574253082275f, 0.04653618484735488892f, -0.00705774128437042236f, 0.03180643916130065918f, 0.01812136173248291016f, 0.03593837469816207886f, 0.01424957811832427979f, -0.07224715501070022583f, -0.06761661916971206665f, -0.01746432483196258545f, -0.06760851293802261353f, -0.02772104740142822266f, 0.05972827225923538208f, -0.04432092607021331787f, 0.06646565347909927368f, 0.01837795972824096680f, 0.02096097916364669800f, -0.01240342855453491211f, 0.07524084299802780151f, -0.00640670210123062134f, 0.00185821950435638428f, 0.01317065954208374023f, -0.01940443739295005798f, 0.00978063791990280151f, 0.06860715895891189575f, 0.04391675442457199097f, 0.03845848143100738525f, 0.04167889058589935303f, -0.03912195935845375061f, -0.02224409207701683044f, -0.02825263887643814087f, -0.08027865737676620483f, -0.07296139001846313477f, -0.07230860739946365356f, 0.00903676450252532959f, -0.01516269892454147339f, -0.07576475292444229126f, -0.01720025390386581421f, -0.07380123436450958252f, 0.01652015000581741333f, 0.05185206979513168335f, -0.02720711380243301392f, 0.00733080506324768066f, -0.04799706116318702698f, -0.01263728737831115723f, 0.07898186892271041870f, 0.00581939518451690674f, -0.05376229062676429749f, 0.05453992635011672974f, -0.03881943225860595703f, -0.04719753935933113098f, 0.04514937847852706909f, 0.01133566349744796753f, -0.04482287168502807617f, 0.04746357351541519165f},
  {-0.01137553900480270386f, -0.02407558634877204895f, 0.06524994224309921265f, 0.04509226977825164795f, -0.01528051123023033142f, -0.05619429796934127808f, -0.00796134769916534424f, -0.00793695542961359024f, 0.07970079034566879272f, -0.06698944419622421265f, -0.01632968150079250336f, 0.02300447039306163788f, 0.02844474092125892639f, -0.07802905142307281494f, 0.07909740507602691650f, 0.07824984192848205566f, 0.03497022390365600586f, 0.06020963937044143677f, 0.05110936611890792847f, 0.07033678889274597168f, 0.01627293042838573456f, 0.03983739763498306274f, 0.06433176249265670776f, -0.07608559727668762207f, 0.05783031135797500610f, -0.03002058342099189758f, -0.04510957002639770508f, 0.06049812212586402893f, 0.07451146095991134644f, -0.05630983039736747742f, -0.00943672657012939453f, -0.01413779053837060928f, -0.06662003695964813232f, -0.05917018651962280273f, -0.03700775280594825745f, -0.01215557660907506943f, -0.00881448015570640564f, 0.00621735770255327225f, -0.05734267830848693848f, -0.00141055718995630741f, -0.07908308506011962891f, 0.07570844143629074097f, -0.03065511211752891541f, 0.06626161187887191772f, 0.00308300182223320007f, -0.05338955298066139221f, 0.04990889877080917358f, 0.07607076317071914673f, 0.00804448779672384262f, 0.03677111864089965820f, -0.01148820668458938599f, -0.01720994338393211365f, -0.04562183469533920288f, -0.06672580540180206299f, -0.05093970522284507751f, -0.00294050527736544609f, 0.02582379989326000214f, -0.06681643426418304443f, 0.08217768371105194092f, -0.01993049681186676025f, -0.00224863621406257153f, -0.03240972012281417847f, -0.06987883895635604858f, -0.06581394374370574951f, -0.03697685524821281433f, 0.07795013487339019775f, -0.07187021523714065552f, -0.01941389590501785278f, 0.04314471781253814697f, 0.05086029320955276489f, -0.06074012815952301025f, -0.02661731652915477753f, -0.06068017333745956421f, 0.03016132861375808716f, 0.06431191414594650269f, -0.07459727674722671509f, -0.07052186876535415649f, 0.00456712394952774048f, 0.06818582117557525635f, -0.08225315064191818237f, -0.02934537082910537720f, -0.07842433452606201172f, 0.05990891531109809875f, -0.08075527101755142212f, -0.03652958571910858154f, -0.02498831786215305328f, 0.03568777441978454590f, 0.03393964841961860657f, 0.01704332605004310608f, 0.05525912344455718994f, 0.00168041884899139404f, 0.03463779389858245850f, 0.01832732930779457092f, 0.06555441766977310181f, -0.05343352258205413818f, 0.06965570896863937378f, 0.01896012201905250549f, 0.04415982216596603394f, -0.04405155032873153687f, 0.04269697517156600952f, 0.06125243008136749268f, 0.05285301432013511658f, 0.01894997060298919678f, -0.03640320897102355957f, -0.03722226247191429138f, -0.02297999709844589233f, -0.02286648750305175781f, -0.01110630575567483902f, 0.00625305622816085815f, -0.06155761331319808960f, 0.03209836781024932861f, 0.02084558643400669098f, 0.06793392449617385864f, 0.05751313269138336182f, 0.03206702694296836853f, -0.02470293454825878143f, -0.07342276722192764282f, 0.04926065355539321899f, -0.02303983084857463837f, 0.01357598602771759033f, 0.07834377884864807129f, 0.01918924227356910706f, 0.00484725367277860641f, -0.03855863586068153381f, 0.04873837158083915710f, 0.06723988801240921021f, 0.02913519740104675293f, 0.00069048110162839293f},
  {-0.00212976336479187012f, 0.00410684803500771523f, 0.03446189314126968384f, -0.05626976862549781799f, -0.01687832176685333252f, -0.00563862174749374390f, -0.00806627422571182251f, -0.07745482772588729858f, -0.07334444671869277954f, 0.01863107085227966309f, -0.03481183573603630066f, -0.03801162913441658020f, -0.06216266751289367676f, 0.06040392071008682251f, 0.01746942289173603058f, 0.04148139059543609619f, -0.07050382345914840698f, 0.02464225143194198608f, -0.07603486627340316772f, 0.07375562936067581177f, 0.00103427050635218620f, -0.03710027784109115601f, 0.01256433781236410141f, 0.03906255960464477539f, 0.05304611474275588989f, -0.06223908066749572754f, 0.04691152274608612061f, -0.02302094176411628723f, -0.04946315661072731018f, 0.01729436218738555908f, 0.05919884890317916870f, 0.03264677152037620544f, 0.07144849747419357300f, 0.07326311618089675903f, 0.02120296098291873932f, 0.03293473646044731140f, 0.06476695835590362549f, -0.02125337161123752594f, 0.07516946643590927124f, -0.05586316064000129700f, -0.01091194152832031250f, -0.01439446210861206055f, -0.03342913091182708740f, -0.07965560257434844971f, -0.00504576181992888451f, 0.06825868785381317139f, 0.03997685015201568604f, 0.04372647404670715332f, 0.00350225367583334446f, -0.04565010219812393188f, 0.08098898082971572876f, 0.07294996827840805054f, 0.03972724825143814087f, 0.02424042858183383942f, 0.03674459829926490784f, 0.06664239615201950073f, -0.00444797473028302193f, -0.04473295807838439941f, -0.07245285809040069580f, -0.07022774964570999146f, 0.05066907405853271484f, 0.01223120931535959244f, -0.04088035225868225098f, -0.03488728404045104980f, -0.05231346562504768372f, -0.00902204494923353195f, 0.06348098814487457275f, -0.00629175221547484398f, -0.02681669592857360840f, -0.05298274755477905273f, -0.04282501339912414551f, -0.02038395404815673828f, 0.04269140213727951050f, 0.01987951993942260742f, 0.06910612434148788452f, -0.01337838917970657349f, 0.07452457398176193237f, 0.01494659483432769775f, 0.02526511251926422119f, 0.01851190254092216492f, -0.02475733496248722076f, -0.07573363184928894043f, -0.01729008555412292480f, 0.04028186947107315063f, -0.07164946943521499634f, -0.02437476813793182373f, 0.07719845324754714966f, -0.00923637021332979202f, 0.04955028742551803589f, 0.06028747931122779846f, -0.02586408704519271851f, -0.02464213967323303223f, 0.05449047684669494629f, 0.08070326596498489380f, -0.06710993498563766479f, 0.02719046175479888916f, 0.07127352058887481689f, 0.02027618885040283203f, -0.01510273478925228119f, 0.07876045256853103638f, 0.01238217856734991074f, 0.00423577567562460899f, -0.03057168796658515930f, -0.03758037090301513672f, 0.06611413508653640747f, -0.03676183521747589111f, 0.07486850023269653320f, 0.02912769652903079987f, 0.06523969024419784546f, 0.04340949282050132751f, -0.06865742057561874390f, 0.06741414219141006470f, -0.05571824312210083008f, -0.06750150769948959351f, -0.05467534437775611877f, 0.06917854398488998413f, -0.01481009647250175476f, 0.01586786285042762756f, 0.07774882018566131592f, -0.01955504529178142548f, 0.07850063592195510864f, 0.06140242889523506165f, -0.01805077120661735535f, 0.03328239172697067261f, -0.07035073637962341309f, -0.01993772760033607483f, -0.07593965530395507812f, 0.00236809090711176395f},
  {-0.00413816422224044800f, 0.03470514342188835144f, 0.07017280906438827515f, -0.07275254279375076294f, -0.02306998148560523987f, 0.01350625604391098022f, 0.00965034961700439453f, -0.02954143285751342773f, 0.00919748842716217041f, -0.03397395089268684387f, 0.06011013686656951904f, -0.02351717278361320496f, 0.01454648375511169434f, 0.04282414168119430542f, 0.03080980852246284485f, -0.04410969465970993042f, -0.03776830062270164490f, -0.03699079900979995728f, 0.06798704713582992554f, -0.00377040961757302284f, 0.01058180164545774460f, -0.03406578674912452698f, 0.01256124023348093033f, -0.05629841983318328857f, -0.06210125610232353210f, -0.03105121850967407227f, 0.02711680345237255096f, 0.02862633764743804932f, -0.03204050660133361816f, -0.06655896455049514771f, 0.03971967101097106934f, 0.03567449748516082764f, -0.06930305063724517822f, 0.03762374818325042725f, 0.07324343174695968628f, 0.00513590220361948013f, -0.00983170419931411743f, -0.04003238305449485779f, 0.00437153875827789307f, 0.03025544434785842896f, -0.06456619501113891602f, 0.06062576919794082642f, 0.06156390160322189331f, -0.01823751255869865417f, 0.03997164592146873474f, 0.03967485204339027405f, -0.07251166552305221558f, -0.04367453977465629578f, -0.07262533903121948242f, 0.01457343995571136475f, 0.01272674649953842163f, 0.03766381740570068359f, 0.06757695227861404419f, 0.07402869313955307007f, 0.05264494568109512329f, 0.07159278541803359985f, -0.05910453572869300842f, 0.05742136761546134949f, -0.04154765978455543518f, 0.07398558408021926880f, 0.04298000782728195190f, -0.01241435203701257706f, -0.04523609206080436707f, -0.01990147866308689117f, 0.00856454670429229736f, 0.01007883716374635696f, 0.07186002284288406372f, -0.02195718884468078613f, 0.04862178117036819458f, 0.02500534802675247192f, -0.03896462544798851013f, -0.02327081933617591858f, -0.03968097642064094543f, -0.04361397773027420044f, 0.00072797387838363647f, -0.07688695192337036133f, 0.03622889518737792969f, 0.07451797276735305786f, -0.04125813767313957214f, -0.00257106823846697807f, 0.05089301615953445435f, -0.06552285701036453247f, 0.06302165240049362183f, 0.04823300987482070923f, 0.01854701898992061615f, 0.00220587849617004395f, -0.03653826564550399780f, 0.06551535427570343018f, -0.01119809597730636597f, 0.00561698526144027710f, 0.07195276767015457153f, -0.06099814176559448242f, -0.03914789482951164246f, 0.00434529781341552734f, 0.04877709597349166870f, -0.03729106858372688293f, 0.01351958606392145157f, 0.03105692565441131592f, -0.05592225119471549988f, 0.06646233052015304565f, -0.02062971144914627075f, 0.08066561073064804077f, 0.07182595878839492798f, -0.03420750051736831665f, 0.02470736764371395111f, 0.07630901783704757690f, -0.04656192660331726074f, -0.06100933253765106201f, 0.00780192017555236816f, -0.07465287297964096069f, 0.00591023266315460205f, -0.05853584036231040955f, 0.01800949126482009888f, 0.02607969753444194794f, -0.04884098097681999207f, -0.06063053756952285767f, -0.00503977388143539429f, -0.04294265806674957275f, -0.04544309154152870178f, 0.05844281613826751709f, 0.07272460311651229858f, -0.01291152834892272949f, -0.02283620461821556091f, -0.04069431871175765991f, -0.05167485773563385010f, -0.07457269728183746338f, 0.06500811129808425903f, 0.07145551592111587524f},
  {-0.08011636883020401001f, 0.07354754954576492310f, 0.04034004360437393188f, -0.01029596477746963501f, 0.05224298685789108276f, 0.04696778208017349243f, 0.07361183315515518188f, -0.03876145184040069580f, -0.01843183487653732300f, 0.00672836322337388992f, 0.02948348037898540497f, -0.06578679382801055908f, 0.05226757377386093140f, -0.07497427612543106079f, -0.01030794251710176468f, -0.02424759604036808014f, -0.06235592067241668701f, 0.06136283650994300842f, -0.07303857058286666870f, 0.00547780795022845268f, 0.07951623946428298950f, -0.00512826442718505859f, 0.01032203249633312225f, 0.04738457500934600830f, 0.02402615547180175781f, -0.00547846406698226929f, 0.06206350401043891907f, -0.08007067441940307617f, 0.00750723155215382576f, -0.05603873357176780701f, -0.04697526246309280396f, -0.01357015687972307205f, -0.05942475795745849609f, 0.02177038043737411499f, 0.03699426352977752686f, -0.03669143095612525940f, -0.07107879221439361572f, 0.06466620415449142456f, -0.04288763180375099182f, 0.04986394196748733521f, -0.06189433485269546509f, -0.07471050322055816650f, 0.07139215618371963501f, -0.05857366323471069336f, -0.01458601374179124832f, -0.05929998680949211121f, 0.07478993386030197144f, -0.04490272328257560730f, 0.02427209168672561646f, -0.06185057386755943298f, 0.05245744436979293823f, 0.07559689134359359741f, -0.03433944284915924072f, 0.06953360140323638916f, -0.05483566224575042725f, 0.05524542182683944702f, -0.05976027995347976685f, -0.06746923923492431641f, 0.01910094171762466431f, -0.04533790796995162964f, 0.02719138562679290771f, 0.00833185575902462006f, 0.02302083373069763184f, 0.00835965108126401901f, -0.04241380468010902405f, -0.03694110363721847534f, -0.07193990796804428101f, -0.04453921690583229065f, -0.01653909683227539062f, 0.06267639249563217163f, 0.01642985641956329346f, 0.03155242651700973511f, 0.02401354722678661346f, -0.07648268342018127441f, -0.04331626370549201965f, 0.02408993244171142578f, 0.07005334645509719849f, -0.05024076998233795166f, 0.07611411064863204956f, -0.05245964974164962769f, 0.04253483936190605164f, 0.07698401063680648804f, -0.06114823743700981140f, 0.05366941541433334351f, 0.06312364339828491211f, 0.07732409983873367310f, 0.03416563570499420166f, 0.04202458634972572327f, 0.06341055780649185181f, -0.05999400094151496887f, 0.07765536755323410034f, -0.02698203176259994507f, 0.00458361208438873291f, 0.06144165247678756714f, -0.06356069445610046387f, -0.07727368175983428955f, 0.04061917960643768311f, 0.02085211873054504395f, 0.07616280019283294678f, 0.03722734749317169189f, 0.01663267612457275391f, -0.04099930450320243835f, -0.07309606671333312988f, -0.04852412641048431396f, -0.04200557246804237366f, -0.03825600072741508484f, 0.04589682444930076599f, -0.02145584113895893097f, -0.02609875798225402832f, -0.04624373093247413635f, 0.06863924115896224976f, -0.00098168582189828157f, 0.05672333389520645142f, -0.05721240863204002380f, 0.03141476213932037354f, 0.00795846432447433472f, -0.03661357238888740540f, -0.01229170523583889008f, 0.07286535948514938354f, -0.03179752081632614136f, -0.01865943334996700287f, 0.04463353008031845093f, 0.00968507397919893265f, -0.01839416474103927612f, -0.04817771911621093750f, -0.05215920135378837585f, 0.07742550969123840332f, 0.03194065019488334656f},
  {-0.00618823617696762085f, 0.01393920183181762695f, 0.01218774914741516113f, 0.05507532507181167603f, -0.07532963901758193970f, 0.06000433117151260376f, 0.00303350389003753662f, -0.04537196457386016846f, -0.06844466179609298706f, 0.02816789597272872925f, 0.06865482777357101440f, 0.07603029161691665649f, -0.02823733910918235779f, -0.05737140029668807983f, 0.01113305985927581787f, 0.00507235527038574219f, 0.04241503775119781494f, -0.05826177448034286499f, -0.01718567311763763428f, -0.06227263063192367554f, 0.01016730815172195435f, -0.02669265493750572205f, -0.05891279876232147217f, -0.05997382849454879761f, 0.03602359443902969360f, -0.01942029595375061035f, 0.05417402833700180054f, 0.07039380818605422974f, 0.00985471904277801514f, -0.07925578206777572632f, 0.07735910266637802124f, 0.01569030433893203735f, -0.03847929090261459351f, -0.07509999722242355347f, -0.03014264628291130066f, -0.01208183169364929199f, -0.01948869228363037109f, 0.05160171538591384888f, -0.06390494108200073242f, 0.04708429425954818726f, 0.03968223184347152710f, -0.04213256761431694031f, 0.05278263241052627563f, 0.00653317570686340332f, 0.03690368682146072388f, 0.04363412410020828247f, 0.06152734905481338501f, 0.04311692714691162109f, -0.06895939260721206665f, -0.07243864238262176514f, 0.03036785870790481567f, 0.04087126255035400391f, 0.03534989058971405029f, 0.04550989717245101929f, -0.01282191276550292969f, -0.02141221612691879272f, 0.05695935338735580444f, 0.04390945285558700562f, -0.06854541599750518799f, -0.05044211819767951965f, -0.05181494355201721191f, -0.01379851251840591431f, 0.07143753021955490112f, -0.00820066034793853760f, 0.02949562668800354004f, -0.00971440225839614868f, -0.01604982465505599976f, 0.02040764689445495605f, -0.07536967098712921143f, 0.03337723016738891602f, 0.08046668022871017456f, 0.00578996539115905762f, 0.02260564267635345459f, -0.00186695903539657593f, -0.01078315079212188721f, 0.00873319804668426514f, 0.02781700342893600464f, 0.04665730148553848267f, -0.05763179063796997070f, -0.03273426741361618042f, -0.06954190135002136230f, 0.06095185130834579468f, -0.01103615760803222656f, 0.06112994998693466187f, -0.04902856424450874329f, -0.03760827332735061646f, 0.06594906002283096313f, -0.07461792975664138794f, 0.03322575241327285767f, -0.02397603169083595276f, 0.01244568824768066406f, 0.07794558256864547729f, 0.06464701145887374878f, -0.08015489578247070312f, 0.03460402786731719971f, 0.04369674623012542725f, 0.06426668912172317505f, 0.04867769032716751099f, 0.07094959169626235962f, -0.00450246036052703857f, 0.05262321978807449341f, 0.02193566411733627319f, -0.06495218724012374878f, -0.07231684774160385132f, -0.05763109028339385986f, -0.01971855014562606812f, 0.00442276895046234131f, -0.03052877634763717651f, 0.02241665124893188477f, 0.04244448989629745483f, 0.04093833267688751221f, -0.04160584881901741028f, -0.04309756681323051453f, 0.06278093904256820679f, 0.03255181014537811279f, 0.07976252585649490356f, -0.04738430678844451904f, -0.05376636981964111328f, -0.05139323323965072632f, -0.06432947516441345215f, -0.05396147817373275757f, 0.04521659761667251587f, -0.03698703274130821228f, -0.03895822167396545410f, -0.07913580536842346191f, 0.01094897836446762085f, 0.00885929912328720093f, -0.01462940126657485962f},
  {0.01959664374589920044f, -0.02896198630332946777f, 0.08098333328962326050f, 0.02757064998149871826f, 0.03715800493955612183f, -0.07078576087951660156f, -0.06287637352943420410f, 0.04286877810955047607f, -0.06649580597877502441f, 0.02296137064695358276f, -0.02705875039100646973f, 0.07052174955606460571f, 0.02239906787872314453f, 0.01837627589702606201f, 0.01185140013694763184f, -0.01687981933355331421f, -0.05040885508060455322f, 0.02401118725538253784f, -0.02587690949440002441f, -0.04925816878676414490f, 0.04953632503747940063f, -0.01569654792547225952f, 0.01936324685811996460f, -0.02790326997637748718f, 0.01889991760253906250f, 0.03379781544208526611f, -0.06742507219314575195f, 0.06086570769548416138f, -0.06762137264013290405f, -0.03166317939758300781f, -0.00563248991966247559f, -0.06024031341075897217f, 0.06354186683893203735f, 0.05767195671796798706f, 0.04521275311708450317f, -0.06805331259965896606f, -0.02015437558293342590f, -0.01116643846035003662f, 0.02148848772048950195f, -0.02323065325617790222f, 0.01451996713876724243f, 0.02346839755773544312f, -0.04581746086478233337f, 0.01073706895112991333f, 0.06937464326620101929f, 0.06339655071496963501f, 0.03494948893785476685f, -0.01595274358987808228f, -0.02878011018037796021f, -0.03478277474641799927f, 0.06793912500143051147f, -0.01398234814405441284f, 0.07016813009977340698f, 0.02933515608310699463f, 0.04199052602052688599f, -0.05133970454335212708f, 0.04040010273456573486f, 0.00960552692413330078f, -0.00370146334171295166f, 0.05278725177049636841f, 0.08096037060022354126f, 0.07174975425004959106f, -0.01736196130514144897f, 0.05339499562978744507f, -0.02793011441826820374f, -0.01731476187705993652f, -0.03969621285796165466f, 0.06345557421445846558f, -0.00819429755210876465f, 0.05325905233621597290f, 0.03252114355564117432f, -0.06479674577713012695f, -0.04468773677945137024f, 0.07460991293191909790f, -0.04206399247050285339f, 0.01934155076742172241f, 0.07668332010507583618f, -0.04027202725410461426f, 0.01532349735498428345f, 0.06852474063634872437f, 0.01125968992710113525f, 0.03902130573987960815f, -0.00596416741609573364f, 0.01933228224515914917f, -0.04678986594080924988f, 0.00799074023962020874f, 0.06973347812891006470f, -0.02560263127088546753f, 0.05428218096494674683f, -0.07143253087997436523f, 0.00404694676399230957f, -0.07615631073713302612f, 0.03706088662147521973f, -0.01615163683891296387f, 0.01480863243341445923f, 0.07629533857107162476f, -0.07044292986392974854f, -0.03768311440944671631f, 0.00353579223155975342f, 0.05376719683408737183f, -0.01409328728914260864f, 0.02170281112194061279f, -0.00202601402997970581f, -0.03414138033986091614f, 0.00683131068944931030f, -0.01227993518114089966f, 0.00652360171079635620f, 0.02179037779569625854f, 0.04956885427236557007f, -0.05989187583327293396f, -0.03480337187647819519f, -0.04165195301175117493f, 0.03855548053979873657f, -0.04844659939408302307f, 0.05711219459772109985f, 0.00926745682954788208f, 0.04502429813146591187f, -0.00942438840866088867f, -0.03782347217202186584f, -0.02360543236136436462f, -0.00735367834568023682f, -0.01010768115520477295f, 0.06523684412240982056f, -0.06059859320521354675f, -0.07467065006494522095f, -0.04267378896474838257f, -0.02452021092176437378f, 0.08079513162374496460f},
  {0.02777668088674545288f, -0.03426748514175415039f, 0.04842462390661239624f, 0.05527818948030471802f, -0.07977011799812316895f, -0.01568131148815155029f, -0.08021882921457290649f, -0.04972716048359870911f, 0.06648389250040054321f, -0.04599030688405036926f, 0.01488312333822250366f, -0.05089117214083671570f, -0.06327350437641143799f, 0.01761461794376373291f, 0.07367683202028274536f, -0.00016588717699050903f, -0.01607078313827514648f, 0.02673823386430740356f, -0.03713017329573631287f, 0.07962471991777420044f, -0.05757077783346176147f, 0.06867910176515579224f, 0.05300825089216232300f, 0.04768873006105422974f, 0.04055121541023254395f, -0.06191651523113250732f, -0.07586915791034698486f, 0.04576102644205093384f, -0.06111425161361694336f, 0.04506704956293106079f, -0.00339555740356445312f, 0.07031100243330001831f, -0.04955319315195083618f, 0.04746156185865402222f, -0.01713968813419342041f, -0.01849004626274108887f, -0.00449448823928833008f, -0.00674945116043090820f, 0.01168998330831527710f, 0.03936732560396194458f, 0.06089737266302108765f, -0.01427654176950454712f, -0.01151745021343231201f, -0.01623094081878662109f, 0.03516828268766403198f, 0.03928583115339279175f, 0.04328588396310806274f, 0.03251959383487701416f, 0.07370234280824661255f, -0.01061802357435226440f, 0.07710791379213333130f, -0.07137221097946166992f, -0.03509754315018653870f, -0.00416359305381774902f, 0.00532712042331695557f, 0.06347317248582839966f, 0.02970668673515319824f, 0.03283105790615081787f, -0.04059387743473052979f, 0.07887657731771469116f, -0.04855469986796379089f, -0.01165834814310073853f, 0.02589044719934463501f, -0.06426160037517547607f, 0.02432083338499069214f, 0.02960865944623947144f, -0.02463657036423683167f, -0.07872809469699859619f, 0.03142227977514266968f, 0.03313047438859939575f, 0.07834152132272720337f, 0.06723567098379135132f, -0.05687239021062850952f, -0.05841593444347381592f, 0.03457479178905487061f, -0.00937609374523162842f, 0.00603958219289779663f, -0.00036044418811798096f, -0.05801921337842941284f, 0.07991582900285720825f, 0.03307249397039413452f, 0.06882455199956893921f, 0.04321373254060745239f, 0.02829324454069137573f, -0.02946085482835769653f, -0.06729175150394439697f, -0.00127042829990386963f, -0.04281381517648696899f, 0.06899213045835494995f, -0.02468564733862876892f, 0.02819756418466567993f, 0.03191494196653366089f, -0.03191981837153434753f, 0.06032261997461318970f, 0.03459923714399337769f, 0.03998458385467529297f, 0.02876829355955123901f, -0.00522091239690780640f, 0.01847285032272338867f, 0.07719222456216812134f, -0.05537967011332511902f, -0.02580997720360755920f, -0.02488438785076141357f, -0.00195794552564620972f, -0.07485853880643844604f, -0.06825597584247589111f, -0.06617786735296249390f, 0.05176656693220138550f, -0.06254974752664566040f, -0.05647079646587371826f, -0.04038208350539207458f, -0.03287601843476295471f, 0.01741951704025268555f, -0.04889056831598281860f, 0.04574654251337051392f, -0.07827312499284744263f, -0.01386368274688720703f, -0.01615434885025024414f, -0.07927566021680831909f, 0.06316903978586196899f, 0.08084840327501296997f, -0.03747934475541114807f, -0.07159437239170074463f, -0.07575160264968872070f, -0.05299142748117446899f, 0.04033274948596954346f, 0.06776165217161178589f, 0.01129836589097976685f},
